,0,1,2,3,4,5,6,7,8,9,10,11,12,13,14,15,16,17,18,19,20,21,22,23,24,25,26,27,28,29,30,31,32,33,34,35,36,37,38,39,40,41,42,43,44,45,weights_option
0_7500_5,0.0058532397877119,0.0019853643560445,0.0018923862346684,-0.0027196694485904,-0.0008217824391936,-0.0012323981080248,-0.0066348348122393,0.0007762895128269,-0.0047655470852304,-0.0052591708292782,-0.0185209959676604,0.0203007102830442,0.0046238422865944,0.0016334001563183,0.0059557466171125,-0.0001671086862586,0.0032224601253472,0.000409142290374,0.002414135551031,0.0055916745870188,-0.0131703668939443,-0.0007009958836775,0.0035516335204853,0.0153551490790237,-0.0014330992365429,0.0152933353620211,0.0132544314068061,-0.0112098760930025,-0.0323226373032417,-0.0163842143652705,-0.0105254259843618,-0.0162507093695914,-0.0065733787841748,0.0013316592953557,-0.0013981173114859,0.0041784486269311,-0.0028706915376638,-0.0062176445269407,-0.003591419427236,-0.0010070390726571,-0.0012275520226419,-0.0070477401160826,0.0100273597056564,0.0056450546095194,5.140656808788816e-05,0.0153777939049351,default
1_7500_5,-0.0029744130028668,0.0022583347322787,-0.0041739048161614,0.0013137492526636,-0.0006798989306597,-0.0004745166538977,-0.0043527514818,-0.0054502897788005,0.002962777733038,0.0051344991172614,0.001588813123839,0.0202872054447784,0.0032011889288487,0.0014721821943867,0.0032503648303312,0.0048379578567763,0.0031650211497905,0.0007156011677643,0.009857278224474,0.004316405489916,-0.0107818816391613,-0.0032143624135267,0.0068414281959609,0.003438120056959,0.0030150006276602,0.0209321045019536,0.0164448743735289,-0.0126944508654517,-0.0630819403833795,-0.0056662640468099,-0.0150521622424438,-0.0212702289031015,-0.0038232215397587,-0.0030295856460437,0.0050206960641953,-0.0006294979292439,-0.0029211433768722,-0.0119251956913619,0.0053653076980588,-0.0008639166327234,-0.0010587566820959,-0.0039191522903109,0.0005643269432319,-0.0045015485211996,-0.0026634913892026,0.0156229973533495,default
2_7500_5,0.004643550181428,-0.0022313218166406,-0.0034602278120525,0.0017805656627245,0.0047921626596894,0.0001756937387028,-0.0085845509064754,0.0013408379674521,0.0072880240071672,-0.0028042977934847,-0.0174857595793382,0.0372944706108583,0.0016096660310064,0.0007846900254597,0.0030976409701362,0.0021627388939174,-0.0016348986996213,0.0081995621373652,0.0027550311112817,0.0037929993093466,-0.0089690468225737,-0.002573186120839,-0.001236364100521,-0.0025069711552814,0.0001778230301683,0.0080849761773547,0.0288143012790833,-0.0098850124510251,-0.0603884204663182,-0.0061933107628909,-0.0193653244310415,-0.0096541347043494,-0.0079655876044006,0.0070970412687713,-0.0049176124445805,0.0076917439522751,0.0109372191762413,0.0017600027720711,-0.0016807708485566,-0.0018555094846742,-0.0004615402049786,-0.0006145191334838,0.0007780731092712,-0.0016385560501507,-0.0013931679557304,0.0122019888919182,default
3_7500_5,0.0012242126275645,0.0001861317134377,-0.0036540086312366,-0.00384961882376,-0.0017517180088359,0.0028524818500423,0.0009293776701734,0.0046520456083951,-0.0080173825883418,0.0229603261859075,-0.0329120706703786,0.0241382028619793,-0.0020932151549076,0.0009876555827121,0.0014030490725186,0.0028093760061177,0.0006089192963014,-0.0006650136384293,0.0037965581593333,0.0048860944287135,-0.0046408386450533,-0.0019710663254137,-0.0032056402668018,-0.0068958333103147,0.0001700925749775,-0.0032121348409719,0.0285381137097046,-0.0231973397580802,-0.0246940397506653,-0.0064135523712799,-0.0095576727212792,-0.0089335280007294,-0.0095805652357381,5.522306611987394e-05,0.010412001636473,-0.0013048164828205,-0.0050696281879997,-0.0009053058466847,-0.0019309955054499,-0.0001052082037988,0.0012460386337802,0.0090338570493236,-0.0025696937749664,-0.0025537262785395,6.692877078253987e-05,0.0096319158992262,default
4_7500_5,-0.0026027773481737,-0.0012840339480575,-0.0016034511631559,-0.0012133868274003,-0.0043098808544624,0.0005067308376837,-0.0030222678720161,0.0003836509712821,-0.0252499216347894,-0.0204371479563442,0.0095166201597811,-0.0059034559872473,0.0031900386107145,0.0010503351173509,0.0064444918751987,0.0013683452709031,0.0016395637932028,0.0016192241084765,0.0009910991845257,0.0050955590557516,-0.0167250438719776,0.0017096772737974,0.0132678309441358,0.0126033559216609,-0.0149443235461732,0.0320733894937124,0.0303973501688983,-0.0014662583828163,-0.0406778394092287,-0.0111681918478211,-0.0108275790205029,-0.0161595912424208,0.006579474073918,0.0085510348123389,0.0117666453961812,0.00665148387667,-0.0023269501457923,0.0043431089013421,8.07059744913353e-05,-0.0051332305132895,-0.0010995964376898,0.0025211419081281,0.0034020330129063,0.0021727489138132,-0.0018368635272533,0.0039219484444719,default
5_7500_5,0.0012377193114527,0.0035463635557953,-0.0023396892548414,0.0012509785788093,-0.0026884326218985,-0.0014639198146957,-0.0040409384920269,0.0019031316502868,-0.0225485135965923,0.00657780060701,-0.01666051603594,0.0100753061199146,-0.0004461077579431,-0.0024898583803236,0.0046596868815759,0.0037236799831407,0.0001575384634077,0.0073890093045888,0.0013508005810542,0.0072819557263276,-0.01169781305977,0.0027800112152424,0.0002949515876453,0.011587292191109,0.0055840291419633,0.0134309609200678,0.0093031070953676,-0.0100119058623376,-0.0258124621039234,-0.0038062372010711,-0.0152730261025524,-0.0057431877012011,-5.490283703214564e-05,0.0057694092993734,-0.0035132114761798,0.0050929511978725,-0.0075367174603253,-0.0033880260758618,0.0043914855899869,0.0066705025209632,0.0031859021552657,0.0073812739303365,-0.0017077823800643,-0.0045840476823897,0.0035602106364223,0.0114150015317412,default
6_7500_5,0.0014115447217552,-0.0003466110406482,-0.0039416094156501,-0.0065415412257378,0.0110968915333406,-0.0043961179467825,-0.0020669666669223,-0.0004278284228425,0.0172614789072184,0.025434177819034,-0.0089046143566696,0.023367524455446,-0.0034256416327312,0.0019099488207125,0.0078510316431868,0.0005421615750002,0.0044975027880376,3.2680991461655314e-05,0.0042401506291643,0.0017108479799859,-0.0050367535798929,0.0049416856780359,-0.007501650013483,0.0002567526885662,0.0055637482642162,0.0124331699479225,0.0204972410305367,-0.0193431422136987,-0.0564892079334784,-0.0125743267958988,-0.0037058237804815,-0.0184520901664732,-0.0127096173794438,0.0061116768799538,0.0120892938669893,0.0046869307614864,0.0055387554477999,-0.0011334463570129,-0.0017428025326254,-0.0036228043034402,-0.00045616610636,0.0067830148816556,-0.0011020939097119,-0.0023627389819502,-0.0003582400228061,-0.0003355386671427,equal
7_7500_5,-0.0016250505349025,-0.001706911837563,-0.0029998543978217,0.0027073205213278,0.0013104198734388,-0.0025242933482349,-0.0075632219312453,0.0010476720585688,0.0057319929514546,0.0109285301440332,-0.0092018984136978,0.0336387271187183,-0.0009566000315893,0.0033868678247895,0.0069461584121527,0.0017812189931035,0.0017739014248122,0.0040789458641505,0.0050583992246521,0.0034114537907148,-0.0105053935777401,0.0019284465148965,0.0043578991557177,0.0085733160303982,0.0019970982943561,0.0131533189219486,0.0199375321899678,-0.0073024330780248,-0.0620287541613435,-0.0104089458697813,-0.0133084303264262,-0.007961431266009,0.001633320597269,0.0025618001064746,0.0046283035079949,0.0032700028357467,0.0122595786511989,-0.002913734672426,-0.001706629724409,-0.0030067641924548,0.0003177247762284,0.0036815362500184,0.0026251515197888,-0.0056243454537363,-0.0047484355726624,0.0007632473834056,equal
8_7500_5,-0.0019474840666593,0.0008255004398196,-0.0029201190167964,-0.0028305390776636,-0.0005196664145652,-0.0010651503949382,-0.0042752119563345,0.0027164165937082,0.011583466683074,0.0167948115089959,-0.0051048646010727,0.0214266988955432,0.0033963945315808,-0.0024367210186473,0.0065208870630379,0.0029177193685878,-0.0025787951777151,0.0073180520898773,-0.0026667208919989,0.0086004482291786,-0.0075796448496254,-0.0006208225650143,0.0064942464322769,0.0008335218669712,-0.0016047210892907,-0.0022510169068922,0.0046530906308581,-0.0115073511352407,-0.0766038689693914,-0.0070282507853323,-0.015460248906357,-0.0086348349338326,-0.001266269248408,0.0079316538073518,0.0022255419394501,0.0038333289232824,0.0066023028018052,-0.0023246577911697,-0.000766968826518,-0.0019337094670028,-0.0008248615796987,0.000691505760388,0.0022939938918149,-0.0015750777640895,-0.0034260236748312,0.0173729747163569,equal
9_7500_5,-0.0012253174179268,0.0018678224092457,-0.0001143368473227,-0.0057499858388187,-0.001764946292789,-0.0009242179711994,-0.0041861679688757,0.0018726043534872,0.0112811762412282,0.0180684740424574,-0.0149969499943573,0.0215310096384668,0.0037421623337349,0.0003515991680353,0.0029033043522791,0.0022964500862755,0.0013916514484631,0.0053048264797216,0.0044187021511091,0.0066480857204802,-0.0035493834070557,0.0052157532046197,-0.0001632588372566,0.0087445794060875,0.0041915662084097,0.0066665072069329,0.0192687849172593,-0.0228317383784414,-0.0539215651005143,-0.006685200447802,-0.0179190561626168,-0.0083411465269773,0.0011510901178329,0.0015671343137647,0.0069199643539663,0.0026489000679942,0.0015859522533676,-0.0074495817020438,-0.0007047869039703,-0.0014246656597396,0.0012482448550697,0.0037415340456834,0.0004252813534878,-0.0048401648363071,-0.0043542142105346,0.0171986774413998,equal
10_7500_5,-0.0006828753365732,0.0007976508817042,-0.0030677643916655,-0.0008974947439422,0.0022397266507428,-0.0001666681247371,-0.0010415925392823,0.0018764838747367,0.0039385771954884,0.0079589770805284,-0.0037960184102886,0.0332751982861779,0.001304063655259,0.0060180215689751,0.0083525012941858,0.0039155847846809,0.0029599309562391,-0.0008399627274375,0.0012650764479005,0.0020433330585213,-0.0199030038506609,0.0042013520775269,0.0107752194629334,0.0063351194655368,-0.003773613061133,0.0223449106129306,0.0236940711853949,-0.0053059224422332,-0.0344963095923157,-0.0125912214233275,-0.0185279489862657,-0.008725577760354,0.0045968662232767,0.0078134467667562,0.0064085951741668,-0.0014615855863971,-0.0035782359164338,-0.0030747420081564,-0.0024523757662584,-0.001735374026316,-0.0007246102967151,-0.00013174037177,0.0024987014720369,-0.0012716012657993,-0.0045270065521029,0.003391418573961,equal
11_7500_5,-0.0015208719640217,-0.0044728757742003,0.0020634374278437,-0.0031215984832643,0.001390092366783,-0.0003899239686109,-0.0005740907090833,-0.0004368877880445,-0.0058621720182127,2.626619362543122e-05,0.0005817630976093,0.0265049506198841,0.0030975997210814,-0.0003682398172107,0.0057272069718002,0.0011348592446405,0.0001341374180824,0.0056085887341339,0.003592417531055,0.0025912171845491,-0.0119533442851368,0.0071976361170092,0.0027493350988842,0.0102297682532645,-0.0060726364817152,0.0295850756504193,0.0256663181101995,-0.0072249881984642,-0.0346395285044928,-0.0129882422390433,-0.0086947362735067,-0.0009571435832555,-0.0015346751454642,-0.0013662519843184,0.0061121775003107,0.0030114998273298,-0.0034618515568021,-0.0065247657111988,-0.0022954052220003,-0.0053146930394707,0.0022470487738709,-0.0010157127557541,0.0015076481422936,-0.003957174393218,-0.0015095953517202,0.0003453248567087,equal
12_7500_5,3.5630077599219506e-05,-0.0013595840003199,-0.0011442601146511,-0.0028112870322295,0.0070015034086688,0.0016567503955844,-0.0022598189897185,0.002044570851924,0.0087782245525309,-0.0022663736740317,-0.0253611821189299,0.0134054343942274,-0.0001073044830501,0.0004861467249624,0.0044637165726138,-0.0007158808222552,0.0021580981690558,-0.0007560140869208,0.0003718100608054,0.0025153706117411,-0.0094382793155673,0.0014549670115858,0.0129663587833422,0.0127609255229032,0.0006552799008976,0.0095247420458894,0.0301594985831749,-0.0050103051660271,-0.0818328245488843,-0.011248337494786,-0.0117514593057183,-0.0139248342288519,-0.0003570378692867,0.0050539789270601,0.0152935597202521,0.0044041416368549,0.0045873247585428,-0.0006412463701371,-0.0008422568878712,0.0004563550786514,0.0034110156942193,-0.0029275558153223,0.0040220463645332,0.0022126271746375,-0.000836245329443,0.004751876783726,1/2^lambda
13_7500_5,0.0040831959123216,-0.0076453539442804,-0.0003706169498444,-0.0056694471536452,0.0048072708351805,-0.0010965314897242,0.0023021333897151,0.0034765777687384,0.0251511972009134,0.0290245826106318,-0.0229766735329904,0.0174037796236297,-0.0065842270162923,-0.0019573842912261,0.0060052886830337,0.0030529045855179,0.0018117453352706,-0.0095856536062064,0.0084963702027713,0.0032690585482953,-0.0015126246964542,0.0013937192247578,-0.0053885339400112,0.0092410704661746,0.0066212044966282,0.0063363079440369,0.0100719052336141,-0.0164535286289643,-0.0538434730071082,-0.0054918464494077,-0.008534508922257,-0.0181046339993572,-0.0002991839326215,0.0050879796755529,0.0170737791468734,0.0057777572604959,0.0032408649162422,-0.0036502487771843,-0.0015997528655353,-0.0015375982079843,0.0022634876922714,-0.0025144581770861,0.0017300075445749,-0.000728692282812,0.0011143027766064,0.0049165516081588,1/2^lambda
14_7500_5,0.0020211926079239,-0.0020023002136035,-0.0015351522955667,-0.0020087978227747,0.0047054293470929,0.003077723009927,0.0005013166511638,-0.0009103137811472,-0.0213187964877377,0.0011561318214771,-0.0208121579623686,0.0164594202312024,0.0047015647101338,0.0039671804893865,0.0070939405693687,0.0032180103349676,0.0018789887891022,0.0055035052711887,0.0044418815520044,0.0045056074098346,-0.0098951366766192,-0.0034044475159311,0.0129355071740821,0.0131765550164861,-0.0023287371461358,0.0196138059770826,0.0255410969557462,-0.018802008098104,-0.0489497041749157,-0.0114275206482993,-0.0043244115211195,-0.0321051909011212,0.0006279454597351,0.0036244287523838,0.0101169082496548,0.0022075319754796,0.0113412497179818,-0.0032536788359656,-0.0011067152064582,0.0041534585609001,0.0029536632579068,-0.001710014042763,0.0054234389800677,0.0010725666119537,-0.0039233154945284,0.0134888282865724,1/2^lambda
15_7500_5,-0.0002439630164017,-0.0020485585551894,-0.0017575571498192,-0.0015160695817862,0.0034240538930366,0.0030156580752749,0.0017858836418035,0.0038363587295369,-0.006989785981887,-0.0025020002423044,-0.0106045539324291,0.0131846361820268,-0.0001018080747024,0.0011321006218185,0.0035690606327781,0.0007938706099457,0.003973322895478,0.0030898595539559,0.002809972075577,0.0032578629344829,-0.0147229331163257,0.0009937499800199,0.0173521745146197,8.588404001277454e-05,-0.0042053970998677,0.0015936470811254,0.0204152180292365,-0.0110594289694594,-0.045184446677607,-0.0098148578647897,-0.0131578322394602,-0.0300678070861633,-0.0021131683117041,0.0068363424779368,0.003532890446531,0.0016534963263186,0.0058986770352654,0.0009350194060673,-0.0017794658820652,-0.0027438215998321,-0.0007239768435165,0.0023731307116349,-0.0006033369017002,0.001465209399643,0.0033193544886003,0.0149261682798928,1/2^lambda
16_7500_5,0.0002062604817885,-0.0004395438373824,-0.0033352548240311,-0.001634794015941,-0.0054938550849876,-0.0018803719860509,-0.0010596669317604,0.0027623523926069,0.0016367334061712,0.0052620841715609,-0.0028354356454194,0.0100825071330729,0.0003626615565965,0.0007270487639277,0.0016459952439432,-0.0015257539034863,0.0002635544718878,-0.001555699041079,0.0034336022280488,0.0042942928985375,-0.0077347308640399,0.0037912906896887,0.0099097386424142,0.0033661964588892,-0.0033629147259914,0.0026974918821043,0.0254493161700687,-0.0205753810118021,-0.0447397669141257,-0.0100977191060928,-0.0009753517408356,-0.00999477482651,-0.0014795154384127,0.0063138227766214,0.0010653640705607,0.0027152397452749,0.0047431323888188,-0.0009127158073688,-0.0021814859359025,0.0018229981885652,0.0009379465220589,0.0001125908650486,0.0007760847134893,-0.0013536005751082,-0.000560151805179,0.0045898035616981,1/2^lambda
17_7500_5,0.0006071724946306,-0.0021935748832128,0.0008684699350325,-0.0005389432860198,0.0005083531205705,-0.0016829247703196,-0.0002771256569253,0.0030971047141707,-0.0022936325147638,0.0015687918086654,0.0057357888483463,0.0153543534580455,-0.0019153292249874,0.0018231057861306,0.0084161778463351,0.004195701006674,0.0003370977747519,0.0019922764680746,0.0030010178937062,0.0061592279075784,-0.0209037102540463,0.001371155557677,0.0017725418408369,0.0011012890755142,-0.0030588894472345,0.0239479589330401,0.0279538093333768,-0.0073234605588338,-0.0294781467044049,-0.012269756946638,-0.0199537191813534,-0.0040531495071928,0.0024242661273245,0.0073963328171991,0.0068366868428252,0.0010135700722516,0.0062243828317279,-0.0054165756797235,-0.0010761620170396,-0.00228701096554,0.0021036560974117,-0.0022311250162143,0.0020404762285768,-0.0033669758811123,0.0002252293136729,0.0060622876857622,1/2^lambda
18_7500_5,0.0004415320463749,-0.0004854722587116,-0.0017189701382176,0.0003435373517857,0.0121031876303598,-0.0010987042343408,0.0002317442601944,0.0057920772518784,0.0007970060572938,0.0011367115737459,-0.0150012254080452,0.0275027534260018,-0.0022498038512887,0.0009118875712453,0.0057819538672704,0.0020394826383726,0.0036989265750329,0.0044938860746661,0.0042291498874983,0.0049313352019842,-0.0058837803185137,0.0003385499649341,0.0034216131073413,0.0097329478257608,0.000366985749242,0.0100362014795216,0.0209769847202969,-0.0107426152279015,-0.0618350357143661,-0.0105796663487819,-0.0179157504294878,-0.0229198756121861,-0.0047846433437405,0.0054809208845633,0.0128987551256739,0.0066347918324106,0.0006898762273172,-0.0057221887129106,0.0007780260151756,-0.0026371169057052,-0.0008620417908398,0.0017361821448506,0.0031291493698271,-0.001053585935732,-0.000542944813021,0.0087331538023055,default
19_7500_5,-0.0027775104308898,-0.0010720280894574,-0.0019222940936837,-0.0036285853541379,0.003597493384517,0.0007709878566601,-0.0041793629853079,0.0005189478218324,0.0128685011363376,-7.152394146761377e-05,0.0043002853314634,0.0228872925889408,-0.0016637722633676,-0.0016384655127862,0.0065103148671497,-0.0012831990476255,0.0004638712646176,0.0016505856368344,0.0079554448068685,0.0041618261115814,-0.0061054952030527,-0.0022773358387464,-0.0018766641935632,0.0048437133867118,0.000395667153135,0.005511194116372,0.0161941657715821,-0.0162480540169554,-0.0538284611768622,-0.0123222588039126,-0.008154956629556,-0.0199015521296447,-0.0020414725284703,-0.001858803527002,0.0052095299082834,0.0037140355067421,0.0105132191858663,-0.0040633252289377,0.00147750294142,-0.0018007360292598,-0.0024012599360976,0.002816956095343,0.0019409293657613,-0.000466950589557,0.0005165337667978,0.0091810254828754,default
20_7500_5,0.0068224993240103,0.0015998583432241,-0.0011665235446418,-0.0054190664465892,0.005696797264551,0.002692595106762,-0.0018688871803813,0.0020220118367812,0.0082003445794227,0.0316878200505057,-0.0313503132424769,0.0450062418850924,0.0043547122741992,0.0012525009618561,0.0034425518175676,-0.003699355716728,0.0011285447523988,0.0008668734134459,0.0022664196220204,0.0037392794848908,-0.0075313503858491,-0.0060927160910709,-0.0083799055386337,0.0043929654044239,0.0077122553868619,0.026946201473189,0.0135525587137481,-0.0083183483688447,-0.0714023743669227,0.0021367267632681,-0.012753198708594,-0.0157851174405943,-0.0022660200562189,-1.571397975138203e-05,0.0139343370068072,0.0002734306345091,0.0027489109003818,0.0070636868213286,-0.0003415717614328,-0.0023967137617808,-8.796792127025074e-05,-0.00596466268493,-0.0002740769438021,-0.000880821902611,0.0021135548130303,0.0034968703221068,default
21_7500_5,-0.0002776411039383,0.0005797176963616,-0.0036683873353066,-0.0014099103928352,0.0019462711212167,0.0036446084794589,-0.0011419584810545,0.0023601406550292,0.0063696231923069,0.0129028433573967,0.0021454553384879,0.0296679381347719,0.0008425016807985,0.0029880470680841,0.0053046859249908,0.0014755664337794,-0.0004579790142607,0.0050491814558681,0.0032460245186595,0.0038996315991275,-0.0090775282684368,-0.0023762557403678,-0.0025726505864514,-0.0120887892146826,0.0022224051318852,0.006615204752012,-0.0028607557915449,-0.0098182485813456,-0.0576032950030846,0.0010078554357668,-0.0153960988161559,-0.0129730223918221,0.0082669712369512,0.004546860816068,0.0003789920274878,0.0019262818425292,0.0035967444358527,0.0006511517548755,-0.0008300672546299,-0.0028200581235713,0.0013596474854977,0.0004636291707234,0.0009317287309535,-0.0009603683995722,0.0026050480922734,0.0137574026470608,default
22_7500_5,-0.0042876717619375,-0.0005035741218295,0.000262253495296,0.0019383454086199,-0.0022369336287704,0.0005138430367315,-0.0013667149554092,0.0020513750013115,-0.0068191337842098,0.0132995555649305,-0.0127150951652684,0.0228902348513505,0.0003776187359964,0.0005852942934483,0.0102296516763635,0.0053034905553182,0.003589189058952,-0.0032646053275277,0.0057229132145171,0.0015698455895197,-0.0085396189952933,-0.000123703407592,-0.0009870153013363,0.0061360287641846,0.0009744718761217,0.0253361982594082,0.0182451862149697,-0.0155797433900253,-0.0189396385897589,-0.0054522849009328,-0.0064423833587884,-0.0114762031185682,-0.0007671713285569,-0.0007622536150719,-0.0049258730856212,-0.0003882530407445,0.0041129969872913,-0.00172545129717,-0.0016249531760131,0.0038849629428783,-0.0032486796495388,0.0005879940546543,0.0033528844208582,-0.0003112013744554,0.0017952701411812,0.0071381509521138,default
23_7500_5,-0.0023628137561558,-0.0038976949098277,-0.0010886503152191,-0.0007159276176305,0.00083656269446,-0.0049316780740478,-0.0029217780109957,-1.9735231739322617e-05,-0.0041106524212529,0.0081485725548529,0.0013405179186982,0.0235078994228694,-0.000226833735228,0.0032690071381587,0.0053483517453488,0.0095807633574626,0.0041596459673158,-0.0004565217705196,0.0065802524600914,0.0025765155026223,-0.0175399848599965,-0.0007038340553019,0.0044737820936012,0.0142932160663497,-0.0067348296505559,0.0322872580657976,0.0245352592641267,-0.0063997819846737,-0.0347366237350134,-0.0211902304969877,-0.0125398142336771,-0.0056667507476367,-0.0136155109700932,-0.0006055821715304,0.0053088691949361,-0.0005503769181357,0.0069034193109159,-0.0029749776489677,-0.0041930269505815,-0.0034622781906444,0.0015662756845562,-0.0019096790649475,-0.0003272908311457,-0.0065869071767931,-0.0006905034316785,0.0016543675994751,default
24_7500_5,0.0045316910025375,0.0003665172124386,0.0007775480950917,0.0001848887104191,0.0013779605051977,-0.000259932334821,-0.0024460541762799,-0.0026332608463255,-0.0158492319932923,0.0096716775521523,0.0068807523588975,0.0067771174604513,-0.0003657743162397,0.00050215802267,0.0060779920060368,0.0005171548974723,0.0018953147732054,0.0054720594017688,0.001983605663348,0.0035097196090912,-0.0105987113387124,0.0063573449685542,0.006396091506514,-0.0098722056724224,-0.0031031635539879,0.0176100464618799,0.0119390556092504,-0.0152203760176074,-0.0353345246066451,-0.0051171021947823,-0.0031842336129849,-0.0050824648493169,0.0029904462793899,0.0049941742976493,-0.003350656738286,0.0047536612783142,0.0053117142225977,-0.0017502514690181,-0.0014463364129221,0.0002673721434059,-0.0011989334922876,0.0034358108025054,0.0040403922017051,0.0007894012209093,-0.0034564180756284,0.0101518780441014,equal
25_7500_5,0.001485662690984,-0.0020745979351414,0.000628634413179,0.0005992134309839,-0.0050328003104457,0.0005475580647647,-0.0032943051249676,-0.0007892385238508,-0.0030595185941079,0.0095756624967992,-0.0124907245324089,0.0335561798092029,0.0113342245624599,0.0035458193997044,0.0075642993920436,0.0032200595230797,1.97211429626742e-05,0.0023274305384211,0.0018351109415069,0.00161324421824,-0.0107577805281427,0.0012339619081348,-0.0029378015910937,0.0040911836484026,0.0066522918093721,0.0190146863252602,0.0176530977397526,-0.0049466587342179,-0.0454159386906122,-0.0154225505745834,0.0027477772499668,-0.0059966400716019,-0.0008157772277731,0.000473284035042,-0.0113247768094105,0.0020150231260782,0.005017222611235,-0.0017981633872063,-0.0051814755643767,0.0011891196135014,0.0017823375192764,0.0025314659211785,0.0005043722877607,-0.0033837177382557,0.0017667941133914,0.0030077366950005,equal
26_7500_5,0.0008465737671983,-0.0032148666924236,-0.0008105711802993,0.0003561753675627,0.0004056942056294,0.0011026830405636,-0.0023533257955994,0.0052219058609045,0.0090839215034159,0.0238829079125351,-0.0036251828675832,0.0307228648587226,0.0027594985286817,-0.0019463196539292,0.0049967985500432,0.0041403031110975,0.0033154948535108,-0.000516418962279,0.004668771438941,0.0036660991385892,-0.0174528686272762,-0.0055962101857405,-0.0058186839254009,-0.0056724298313964,0.001375780210355,0.0133558980833443,0.0054051211050568,-0.0094146787741452,-0.0637534074001292,-0.0018006097538751,-0.0186159538092789,-0.0202904027776147,0.0001898127917869,0.0031422858305537,0.0117891291679982,-0.0032936699484567,0.0037365560030474,-0.0002531775106639,-0.0004762734601183,0.0011902204495507,0.0017178941666207,0.0018757284236151,0.0011449287902826,-0.0022659639937859,-0.0040178265588297,0.014936579480548,equal
27_7500_5,-0.0060858740772415,0.0012994855420642,0.0001867950062121,-0.0013831898692261,-0.0018872653973762,-0.0001703837626945,-0.0003574403885798,-0.0046580724474562,0.0187375938592979,0.0152376444068246,-0.0104640415221413,0.0166967470682991,0.0043698364898493,-0.000722073272497,0.0088650720102759,0.0029533323790431,0.0028023972189336,0.0031542643149111,0.0007473179121198,0.0041966293182193,-0.0022625972521903,0.0065689690057024,-0.0069522395754113,0.0054620530765704,0.0022474000446856,0.0013063620011736,0.0072661089146743,-0.0144915386172957,-0.0573536980770845,-0.0106879885376294,-0.0206877218977716,-0.023105461118231,0.005139231433566,-0.0024520228053067,0.0093499731706441,0.0053012605753756,-0.0047039513655671,0.0031250001748064,-0.0006287039193242,0.000349275772832,0.0005069603950647,0.0005305605901906,0.0007682640970798,-0.0037596996791163,-0.0007855686103215,0.0090132274422966,equal
28_7500_5,-0.0023196196892954,-0.0072044024895816,0.0002701952307827,-0.0042875261340314,-0.0022706475389528,-0.0001289100186813,-0.0017323095112548,0.0019356289792158,-2.5234452868631853e-05,0.0076079749213527,0.0040785177942759,0.0137624117729604,-0.0020113054565019,0.0019343630515339,0.003255714712703,-0.0007301169259699,0.005558189643644,0.0024830951477071,-0.0002889645103841,0.0013268619182584,-0.0147712715169494,0.0032403872366235,0.0193984088372223,0.0195426374360502,-0.0058821958269479,0.0274814711291933,0.0236562256237143,-0.0059028467377078,-0.0508669990974287,-0.0062666259130058,-0.0137511109024352,-0.0107364839171638,-0.0030664694839033,0.0064694316485723,0.0051633055900168,-0.0043980222575565,-0.0067147313221257,-0.004004604135466,-0.0013483573758084,-5.102768480413986e-05,0.0003876753889993,-0.0025312333732157,0.0030370748074672,-0.0001177729199491,-0.0024262652317082,0.0047504843070704,equal
29_7500_5,-0.0070003961886015,0.0003457883356012,-0.0024716432400318,-0.003946354817701,-0.0031085171797941,-0.0014104022682624,-0.0039910204777469,0.0039342058732466,0.0054067770364137,0.0073299060979954,0.0112229994894414,0.0161244382533419,0.0030812002765573,0.0035944282647923,0.0054864763381308,0.0001391779097345,0.0038197094803155,-0.0006182077241988,0.0124324946164924,0.0033176814743841,-0.0106755841919827,0.0005554819909078,-0.0085405109696653,0.0153613464847978,-0.0007262697334421,0.0201175215854137,0.0187222317732268,-0.0114296272901156,-0.0154302731262206,-0.008651755248113,-0.0087254718432106,-0.0049548243144956,-0.0012698643314473,0.0012071676205226,0.002062454793187,-0.0061370237209761,0.0063084308772322,-0.009150138174162,-0.0020244830640928,0.0007147651582868,0.0025573631541937,-0.0030172291184712,0.0001644423046636,-0.001654424560411,0.0010671978793021,0.0015306679961725,equal
30_7500_5,-0.0073892259736647,0.0037200796528471,-0.0013599099465083,-0.0016048416974519,0.0057191568030762,-0.002882906319558,-0.0021636950371905,0.0015112623002949,0.0088921924071371,-0.0025284030722234,-0.0071906610137336,0.0165526239472381,-0.0026551075038281,-0.0028225732367786,0.0016982186943206,0.0088014699621181,0.0002758785615686,0.0040781321922519,0.0036387197935983,0.0074997727473264,0.0029249519331848,-0.0075340977156638,-0.0001985084274059,2.422505223919809e-05,0.0016798390272992,0.0046924038027202,0.0040554705621451,-0.0003362551885039,-0.0334631437938447,0.0004267695862123,-0.0162861509118733,-0.0143580652705076,-0.0005020123620904,0.004621210795074,0.0057875155405506,0.0015613283277666,-0.0033556615663427,-0.0082905534104401,-0.0018249522549693,-0.0005761747584305,-0.0039134659957424,-0.0059667498012016,-0.0005539828146853,-0.0063598131782743,0.0026537667054794,0.0093679961953665,1/2^lambda
31_7500_5,-0.0023220821337297,-0.0018342283999333,-0.0075732379877472,-0.002756507144806,0.0039924270317812,-0.0011428413385134,0.0007356357880993,0.0017720224693389,0.0233900025261041,-0.0081897550625248,0.000239324618366,0.0035581713221475,5.680938221724398e-05,0.0043381311380898,0.0128446277635901,-4.719405935992352e-05,0.0013319537852478,0.0014679295644802,0.0038724273578665,0.0088963029842575,-0.001642814542672,0.0004402935488089,-0.003043306471642,-0.0133775452716983,-0.0027443388696639,0.0147830703867533,0.0125759754068891,-0.0141993106579364,-0.0496867917118278,-0.0042684427034152,-0.0072159601584386,-0.0103273154530355,0.0001859982591321,0.0016737128573677,-0.003788026253885,0.0020307321398092,0.0174170128896261,-0.0003271165220426,-0.0011318458789659,-0.0022732464995016,-0.0045632713528166,-0.0001415941038135,-0.0037803587944168,-0.0036576643947843,-0.0016862698660284,0.0016470108094556,1/2^lambda
32_7500_5,0.0016860226098778,0.0014396930005723,-0.0013754071248258,0.0044600751657512,0.0055026368263306,0.0029482866465057,0.0016205544124558,0.0053599040833074,-0.0213766768547064,0.0099872641277703,-0.0030456788065739,0.0211338615331025,0.0033315369854478,0.0006699730181539,0.002531597235575,-0.0016790532190452,0.0038128774669773,0.0069517660600559,0.0049516710376341,0.0028565358004163,-0.014555426624856,-0.0029949292979602,0.0065620711645318,0.0011633436563315,-0.0033891927723958,-0.0007444627220593,0.0039410419893932,-0.0187243436681996,-0.040989934555984,0.005615060335254,-0.0203762092577434,-0.0199741077939387,0.0049463693374077,0.0075089024976467,0.0009420869551289,0.0059252695256962,-0.004213450744588,0.0003157834614018,0.0002030977767797,0.0020631709457741,-0.0027008537582638,0.0016723374118983,0.0055252420368017,0.0004111141929262,0.0016924863971548,0.0238289814092033,1/2^lambda
33_7500_5,-0.0003930296888348,0.0002215742767556,0.0016677038074483,-0.0020656747312246,-0.0019192141567412,0.0002539442830651,0.0013878504847005,0.001237729818292,0.0060896590760168,0.0123945346103931,-0.0079359207289765,0.0280331722525165,-0.0031078756048551,0.0003030989391596,0.0031110134766748,0.0029765666895271,0.0039835706237615,0.0013192222152615,0.0058137915613763,0.0070816906336347,-0.0173490943501147,0.0066014827024952,0.0036595614669293,-0.0051245027526171,-0.0003157785998683,0.0121887369996459,0.0054073681376709,-0.0158362190995482,-0.0494109519683391,-0.0072449765060283,-0.0193043202146826,-0.0185771889207627,0.0028751297573833,-0.00158463309151,0.0116163079304652,0.00319540809791,0.0102338474517806,0.0001326660504268,-0.0003593772410678,0.0006542540536603,-0.0032331914845805,0.0054188433198883,0.0004755465971842,-0.0055995150481074,-0.0009715043591706,0.0126488638082673,1/2^lambda
34_7500_5,-0.0011888592882686,-0.0050127783430497,-0.0012023808998922,0.0054433511967743,0.0011299956642616,0.000958663049981,-0.0019713817906013,0.0039480815111239,0.0018442303727709,-0.0015239959236522,-0.0096125472514492,0.0098519229277552,-0.0021149745421229,-0.0005383805923406,0.0060450028511497,-0.000584801939972,-0.0004683836301445,0.0066907277921621,0.0032087287525225,0.002975952941944,-0.0032095454153747,0.0038152950949169,-0.0003147961166249,0.004095932376183,5.281777272641324e-05,0.0065477553320711,0.0023611656622631,-0.0215270114525513,-0.0212040744815835,-0.0092012067001078,-0.0172313157545658,-0.0025486978419041,-0.0088011161869417,0.0049029378967225,-0.0068519565916056,-0.0030107173752454,-0.0030870611039033,-0.0027295240700622,0.0010385993422017,0.0005515462683378,-0.0005042856018901,0.0131485226662946,0.0032839847757126,-0.0011853986039717,0.0021818702309298,0.0205725866682188,1/2^lambda
35_7500_5,-0.0021775067009539,-0.0003419171343601,0.0020161101029045,-0.0016654405834078,0.0012491655620005,0.0009886513053768,-0.0004996317791232,-0.0016326682325215,-0.0155418629862238,-0.0096882234651939,-0.0070337677656306,0.0219309668887843,0.0005722136276746,0.0004338292962447,0.0139101765025374,-0.0111968771272723,0.0006349261583731,0.0019280311079658,0.0016533791963408,0.0055710494005135,-0.0137818411105294,0.0044771789709125,0.0007652749292821,-0.011157246087855,-0.0041055381574592,0.0097772987242358,0.012161697050874,-0.0105305308895915,-0.0406079739226686,-0.0068678152701934,-0.0109398206813022,-0.0067270568144587,-0.006666005587813,0.0055187975691625,0.0050156694990229,-6.98788551703467e-05,0.0087257487716218,0.0016606546993622,0.0073066957440445,-0.0010884521015321,0.0042635629041076,0.0020865943048183,-0.0008242873542033,-0.0012734425544705,0.0024521361671922,0.0080651019441347,1/2^lambda
36_7500_5,0.0036734516183472,-0.0021086992352416,-0.0001696557988137,-0.003303010943352,0.0068277615213504,0.0057900592111293,0.0037132544376909,0.0013199540050902,-0.0062265491034222,0.0045714464103774,-0.0119950897314621,0.0028924817890019,-0.0024307241775369,9.215393450354673e-05,0.0088164045211398,0.0051889701872513,-0.0008248306997868,-0.0004378458356978,0.0136572995620071,0.0064065466145293,0.0019444760785922,-0.0089048009698228,0.0051158129764994,0.0081221557723126,-0.0079176625600714,0.0163382116093851,-0.0055064654524582,-0.0013524323396275,-0.0349126497885845,-0.0068868751558907,-0.0218469299144449,-0.004314040374006,-0.0012870493010692,0.0039170479553675,-0.0106246893790557,0.0008114967570684,0.0108119221580515,0.0002020383407333,0.0040836215764898,-0.00354721059592,-0.0014664794037647,0.0048691061377527,0.0037348758888056,0.0017779030722112,-0.0035850098323961,0.0112745211103508,default
37_7500_5,-0.0014289892098384,0.0043637872457078,-0.0019529851563378,-0.0009855147498881,-0.0078161594292212,-0.0015411926487326,-0.0003159635341225,0.0011630093439676,0.0035648462702293,0.0109840108255782,-0.0049666812525998,-0.0056773227877233,-0.0046922812571585,0.0027077782111595,0.0004911675735759,0.0031980980062461,-0.0006723030026091,0.0022094842265453,0.0038832827478447,0.0004514864773332,-0.0145670347917796,0.0042846482380384,0.0070462488701279,0.0161324028694803,-0.0004426989775971,-0.0015898212185721,-0.0007476649982762,-0.0112217426530742,-0.0487263259921392,-0.0085739652224965,-0.0048101822579636,-0.0033856490954085,-0.0024290263182478,0.0018832463012185,0.0004163224617188,0.0046399487075388,0.0103490804804157,-0.0007717537907228,0.0003429890212826,0.0019985192432956,-0.0003602464361883,0.0013412980964661,-0.0038302098590738,-0.0003097543162507,-0.0006948669623386,0.0150362980758482,default
38_7500_5,-0.0049536046028635,0.0016944968053305,-0.0018399438136003,-0.0029444180867888,-0.0003364225924147,-0.0036972916460334,0.0004797823536394,0.0042464787767908,0.0034838862954111,-0.0080966671776143,-0.0124153904586703,0.0130939280202668,0.0009959989076751,-0.0005257982187178,0.0079871876856471,0.0030137548433928,-0.0029057509227125,0.0030691709885147,0.0051398049091099,0.0110846419599783,-0.0034239189118708,-0.0079409623245354,-0.0017154892046499,0.0047647783673465,-0.0051915217699678,0.0136733223388439,0.0045085751945528,-0.0119183821859774,-0.0268050637058557,-0.0056059278554162,-0.0149025606638648,0.0012866119735694,-0.0022532925271065,0.0016145531912963,-0.0084130044488053,0.0031692929283404,0.0035240844058276,-0.0006082827106629,-0.0045806373172626,0.0036228068825739,0.002044387745849,0.0061213369258466,0.0042687812518786,-0.0036430670503674,0.0008927093247443,0.0127018088553966,default
39_7500_5,-0.0141070100499024,0.0012887242300661,-0.001509501493456,-0.0039897192301077,-0.0008708340901634,-0.0022082044670785,-0.0090269094886553,0.0034240106303487,0.0095747228351038,-0.0100249728782916,-0.0014834723216436,-0.014377939869946,0.0012905029580936,1.4807327198292405e-06,0.0028256352594771,0.003512818230593,0.0001656550852744,-0.0012899612541081,0.0019777395498104,-0.0005290224676881,-0.0052354872246396,-0.0014555888022399,-0.0015991850225999,0.0064861171708054,0.0126148917054047,0.0202228956697112,-0.0012467672953881,-0.012134994038365,-0.0386634468141426,-0.0031176843056278,-0.008069780248254,-0.0047548858232682,-0.0008637743906365,0.0023110565372403,0.0030073382020735,0.0030178954930775,0.0051908876672709,-0.0023065550902543,-0.0052132178743542,-0.00189725028309,-0.0008464230334779,-0.0001014230333315,-0.0013735967468354,-0.0017436223070271,-0.0047901072118637,0.0072047498611254,default
40_7500_5,0.0018113760927782,-0.0002282824021219,-0.0004845217996538,-0.0069025109791573,0.0003440523873047,0.0031784648025185,-0.0025285584729522,-0.0019981846696822,0.0010667134321651,-0.0028642859641157,-0.0072702259366928,0.0056700514870627,0.0007338520226904,0.0024434497813319,0.0102692100006883,0.0048404517657013,-0.0044487399803653,0.0010355498800265,0.0048716466577385,0.0079985665849082,-0.0130341429944468,-0.0010774320172743,0.0057711359841426,0.012987210426063,-0.0064102489738493,0.0203262511764208,0.0038863169331625,-0.0170732925364011,-0.0341803319887515,0.0036272479130772,-0.0030223284398917,-0.0059840552408219,-0.0048135374734345,0.0105221921904309,0.0059833799206738,0.0001083977165081,0.0141273779123547,-0.0004742574252951,0.0016156886912755,-0.0004766810141406,-0.0010010211159549,0.0017509520120484,-0.0011318317569356,-0.0079781683691072,-0.0026406807232779,0.0087775002347676,default
41_7500_5,-0.0033572874216095,-0.0099561281242744,-0.0006244205105562,-0.0083952375722554,-0.005523169609214,0.0021538274365944,-0.0008481582543694,-0.0003666339952561,0.0053721364186055,-0.0002135261665469,0.0047046154730141,-0.0065119903021592,-0.0010520362637226,-0.0017376717469974,0.0042324569138475,0.0056279320109159,0.00153383706414,0.0045390419513005,0.0066346954599979,0.0042900335142541,-0.0284291971451016,0.0023467225099659,-0.0088183679530188,0.0065558968720753,0.0045411037368882,0.0455623918716996,-0.0049252648906687,0.0074465914001665,-0.0112829490415007,0.0073990378188925,-0.0007619195221939,-0.0005165985257732,-0.0087249600476098,0.0013659499528118,-0.0102214108008362,-0.0065543608978211,-0.0043206270330938,-0.0028872833566061,0.0014109127218901,0.0028453908897276,-0.0031190439254828,0.0006209050517064,0.0022732087310518,-0.0023612783182788,-0.000214397266204,0.0091344560204066,default
42_7500_5,-0.003550045179038,0.0016831447819719,-0.0021709038192078,0.0023199412650194,-0.0033898521663335,-0.0018771805689462,-0.0032190196433751,-0.0026113444575131,-0.0013554646845613,0.0064869443197503,0.0007314054097157,0.0318569307037804,0.0044435369229708,0.0008635454850907,0.0046041492828636,0.0101115296966785,-0.0026654202027814,0.0020650951590565,0.0024238372906002,0.0044723685752768,-0.0043741303210623,0.0076729378806305,-0.0081335355409787,0.0143773911612881,0.0008638442282462,0.0129960135088726,0.0108910347677325,-0.0101682031709856,-0.0460530749209601,-0.0056040335111549,0.0040571446021963,0.0016005913255184,-0.0087016668483185,0.0024992271515579,-0.0052712514515747,0.0004289558618163,-0.0167776392635943,-0.0087632910335385,-0.0083616998211043,-0.0010012176473812,-0.0038884907739555,0.0062816436445714,0.0086758611311687,0.0002587043812294,0.0020215315464949,0.008940242760186,equal
43_7500_5,-0.0042875005597397,0.0007965550781314,-0.0067471818229841,-0.0003980299038479,-0.0034042220860063,0.0057830018197592,0.0012279214355798,0.0023199567686073,0.0116596749113006,-0.0111905102398905,0.001364507373567,0.0055594757320657,0.0030877115227883,-0.0022938499571685,0.014919788903115,0.0032615293049286,0.0009196996120502,0.0014659112430116,0.0016162271188655,0.0074583288342291,-0.0030534478704681,0.0028594554547625,-0.0078777301882735,0.018925197798833,-0.0031465304731432,0.0142810926583925,-0.0027504225071418,-0.0085310036914864,-0.0494525873379737,-0.0002437533617016,-0.0122391186414491,-0.0076661346490796,0.0041754316983676,-0.0015638450889517,0.0077601152081584,0.0030326072641275,0.0006959904840377,-0.0024659030081456,-9.934447382522454e-05,-0.0001134356297416,0.0051733514312793,0.0050509514211072,-0.0012188668271533,0.0044685511646666,0.0052884338671979,0.0025256441934862,equal
44_7500_5,-0.0012405598115716,-0.0007872282760118,-0.0010841685522296,-0.0072307167878953,-0.0044517120952214,-0.0026322188248701,-0.0054798784247414,0.0043820535173699,0.0005393652875125,-0.0153093194576242,0.0018375034039573,0.0220838229244736,0.0045572069148017,0.002185035969216,0.0093769956037595,0.0007706733359118,0.0004801026670335,-0.0031570722087546,0.0055936282792995,0.0081032149686479,-0.0114007785843331,0.0015380313747673,0.0135476958266756,0.0096718977265903,-0.0024295060017129,0.0033483057953324,0.0399125714883012,-0.0226838771944706,-0.0212973626064103,-0.0077552700532841,0.0054974707276537,-0.0111712239298415,-0.003472833904348,0.0038832180488827,0.0005598787796013,0.002460667191017,-0.001973696723246,-0.0098456527827961,-0.0106973629129245,-0.0039750376650028,-0.0070134751686886,0.0032668971132814,-0.0016366697055992,-0.0087680025752086,-0.0046491012775657,0.0075594103213273,equal
45_7500_5,-0.0011748360954773,0.0010404255524086,0.0005655242440234,-0.0017683865204343,-0.0033113275388688,-0.0029952021379623,-0.0027035027548553,-0.0020347644282359,-0.0015016342996427,-0.0048569317748635,-0.0077188695543796,0.0149362653714061,0.0032134048158525,-0.000811188793682,0.0175825305865705,0.0029512684190628,-0.0010434813079273,-0.0006180483199619,0.0033876184536299,0.0012015939224328,-0.002013577014005,-0.0058737520652604,-0.0127635537523708,0.0008830921964131,6.907714505231402e-05,0.0242912609345749,0.0006354114251366,-0.0116476583884797,-0.0364296968491927,0.0039080947047929,-0.0133829396479622,-0.0056521971262916,0.0061369462338569,-0.000989764122601,0.0032078916338942,0.0030488103732753,-0.0028297517993564,-0.0018982790725558,0.001870034295601,-0.0042209977082182,-2.10963331487621e-05,0.0022221899046842,0.002898609595122,0.000498693568181,0.0035998591775772,0.0064201926743604,equal
46_7500_5,-0.0026588704182729,0.0005688262977078,0.0012592849689362,-0.0004105499447755,0.0012460232576323,-0.00046116849111,-0.0007170322239091,-0.0021522203583773,-0.0083036385386433,-0.0039591655452551,0.0035069913436203,0.0253321757427958,0.0048599814809771,0.0021450280865156,0.0084955229281047,0.0045602766592739,0.0039414225088017,0.0025688835330889,0.0040723372068571,0.0055552787906147,-0.0151164571261153,0.0060113895932569,-0.0032724478737927,0.013147455565712,-0.0049980102303157,0.0041368182872355,0.0261800631411555,-0.0146233766765226,-0.014076432993253,-0.0081090104306078,-0.0101437876760118,-0.0040494291399246,0.0009899689729112,0.000881663689293,8.780013906800472e-05,-0.0052656682373735,2.073461337154248e-05,-0.0039860856828919,-0.0040586877678274,0.0002358716315846,0.0023700616141772,-0.0023200920103557,-0.0024226430037216,0.0002194706921787,0.0001505867613175,0.0081164225034765,equal
47_7500_5,-0.0007634900178429,0.0005673396547647,0.0040551380015873,-0.0027455993198271,-0.0031021806790887,0.0007329320342719,-0.0027486446218494,6.792366862408963e-05,0.0009166480798858,-0.0027048656890063,-0.0015274861621505,0.0202682012812822,0.0041652638823662,0.00013151244366,0.0102810209309573,0.0055452118712967,0.003377506233571,-0.0007573162252471,0.00923061596824,0.0064862095584484,-0.0123783679752342,0.0038523709222208,-0.0004302043663802,0.015820118200037,-0.0047901263517423,0.0205845779778338,0.0126103537847943,-0.028701964995017,-0.0315396849906549,-0.0069284667639401,-0.0014776102922526,-0.0030473204625982,0.006239097067667,0.0009242904631082,0.0037148845380559,-0.0031377174942271,0.00643192134515,-0.0059306906998774,-0.0040818253347889,1.6297339118736866e-05,0.0006354774503943,-0.0014236775682641,2.5525616895888275e-05,0.0032990829830762,0.0028688024736674,0.0007832407861971,equal
48_7500_5,0.0049567238717763,-0.0019828072226285,-0.0034700931282542,-0.00189832212932,-0.0035628644355368,0.0025412285359756,0.0020675682109512,0.0039371709520544,-0.001673245146197,0.0041169395740236,-0.0087889087742115,0.0446221538407208,0.0024390564397312,0.0005928594327377,-0.0001924993199088,0.0028606307099186,0.0019252886446211,0.0011815642199341,0.0051346524386162,0.0004303230757959,-0.0150537897970748,-0.0053949679364962,0.0189633515931534,0.0073571376771632,-0.0057625077448601,-0.0131383111853884,0.021504778922148,-0.0214626395600455,-0.0303829462175198,-0.0064188023400239,-0.0122789133798496,-0.0040530543992465,-0.004004037717977,0.0053787599390878,-5.2454569618186345e-06,-0.0015001766774254,-0.0017934151706264,-0.0033572640972359,0.0030203257366862,-0.001257571627819,-0.007631640865733,0.0069988424420144,0.0006488516811956,-0.0007178882193412,0.0008100108669688,0.0116070589528864,1/2^lambda
49_7500_5,0.0004509103463609,-0.0011976178151417,-0.0020856944954239,-0.0005668145685539,0.0012079791980915,0.0006947915514787,0.00119378098866,0.0026746186287464,-0.0071822218507207,0.0047724371943635,-0.0066773750747171,0.0109862858978456,-0.0012632141083968,-0.000803772158275,0.0058536928886826,0.0015443546972864,0.0009393727518068,0.0006860588018152,5.512023785207397e-05,0.0003526693057023,-0.0070433816835728,0.0086452739824817,0.0007496617077205,-0.0015380598361763,-0.005999468276141,0.0059411787493315,0.0168505950353681,-0.008876134365906,-0.0247124164301703,-0.0037839721229332,-0.0192051870311237,-6.598067506157096e-05,-0.001303466459133,0.015303791120445,0.007307946577926,-0.0001328080960597,0.0019069956604859,-0.001153877779772,0.0026609456560509,0.0018501691552609,0.0043785423290315,0.004031361453844,0.0021366717460494,0.0012561292424695,-0.0057657133716064,0.0111389130735777,1/2^lambda
50_7500_5,-0.0013888093689145,-0.0005505792310462,-0.0062238006502109,0.0006139090732689,-0.0026869560967612,-0.0045813198913388,0.0022938374733656,0.0059743674267088,0.012272221132018,0.0108856419219942,-0.021256638956998,0.0319934908482827,-0.0014414194040193,-0.0043464765151778,0.0072599196941124,0.0022291233456736,0.0032544067628637,0.0081892081179943,0.0035823937167596,-0.0044159242657364,-0.0154481163749734,-0.0027168842673127,0.0168086577652445,0.0026389296496307,-0.0060427083048968,-0.014624003177074,0.0128296884093704,-0.0190638304329815,-0.0447065072494605,-0.0052743963182697,-0.0055790526999895,-0.0127627556959625,0.0012999086094202,0.0021461157588994,-0.0015434936633227,-0.0012181026690337,0.0077179560875109,-0.0035490919505764,0.0033351565311657,0.0043530183528882,-0.0008230925000789,0.0036846429703489,-0.0043526608438435,-0.0025566626052305,0.0042913852419296,0.0228571375886533,1/2^lambda
51_7500_5,0.0039783293292076,-0.0018827414323936,-0.0014342737909555,-0.0020009825727855,0.0032870612709964,-1.572502822963457e-05,0.0022901650301907,0.0045942881454016,-0.0045817893158518,0.0031442799550393,-0.0150189567615317,0.0115796025699136,0.0002675441458675,0.0018689773951845,0.0046735677530671,0.0033112055355821,0.0004425077246485,0.0008856202483838,0.0011986912207822,0.0043645783912271,-0.0088251437333684,0.0017003918265193,0.0084282395841402,0.0010276939600344,-0.0045907116912364,-0.0033942132110834,0.0275490914964767,-0.0106054210065321,-0.0488086019946236,-0.0132800122841471,-0.0268722470541577,-3.422984248129951e-05,0.0001728952073107,0.0152381385246675,0.0055327525131513,0.0048938048729599,0.0122979897176264,0.0005106426909397,-0.0012062075494435,-0.0014042301205252,9.854871395357784e-05,0.003853415812234,0.0037490415659727,0.0057179097218589,-0.0004741176258883,0.0026863844523249,1/2^lambda
52_7500_5,-0.0046576998368218,0.0021811134108407,-4.39651255092825e-05,0.0023631374019945,-0.0128752933933693,0.0017311487222564,-0.0009287492048551,0.0038632484127478,0.0006132906983577,0.0044023846584727,-0.0043314300879107,0.0070523171605834,-0.002630799281721,-0.0011081829088577,0.0059747427958444,-0.001520031403916,0.0030690088362493,0.0002596028928407,-0.0041077204902323,0.0109661097672019,-0.0229267590658732,-0.0011760445112942,-0.0140174813626449,0.0159878555160365,-0.0052711667062974,0.021708861336603,0.0247829674634205,-0.0118738351398783,-0.0253223807897121,0.0012099463761546,-6.536456769720886e-05,-0.0218013787428421,-0.0026677121179785,0.0084736832932954,0.0019001451789695,0.0022187757435834,-0.0018112948689644,0.0001711310354881,0.0071979101500459,0.0107168294594095,-0.006058963133812,-0.0007832678786372,0.0026175325990561,0.0008866394228149,0.0076704254681772,-9.6392409168704e-05,1/2^lambda
53_7500_5,-0.0019703383985378,-0.0007252959977649,-0.0009149947559406,-0.0010583186522867,-0.0005812485671307,0.0006422913331447,0.0040043573865575,0.0015884895857111,0.0001443115438915,-0.0010425930030939,-0.014831652771718,0.0108215545438286,-0.0025601308245819,0.000861682489105,0.0045532560770399,0.0035302939581883,-0.0006347464497952,0.0015051364219792,0.0068945928345164,0.002597628912852,-0.007168183877985,0.0084174131491649,0.0023927105803514,-0.0022650875332233,-0.0049445507195906,0.0117529967427398,0.0204566494234865,-0.0138407478699049,-0.0485718907874787,-0.0050041591880241,-0.0160184442827023,-0.0004702425434681,0.0030371017576933,0.0092277262761505,0.0101108181750051,-0.006184729001141,0.0063052758712526,-0.0004367807859436,-0.0030555105612434,-0.001640624342155,0.0072855181832942,0.0030845636004814,0.0050473432345101,0.0024238806221973,0.0054867200622337,0.008902666332658,1/2^lambda
54_7500_5,-0.0029501615920666,-0.0015387541688892,0.000907039949618,-0.0004014096501869,0.0042493505775617,-0.0016844387172567,-0.0023313385216364,0.0022714651382484,0.0186624371950458,0.0102153181822088,-0.0150050905798067,0.0149967281348227,0.0021511809761651,0.0045201139844099,0.0043132956802638,0.0009411646652385,-0.000232226449878,-0.0009314002142882,0.0017061940449414,0.0031202209348953,-0.0104936087868689,0.0030158789023,0.006850400562244,-0.0013142070449543,0.0030590279223417,0.0059063897411172,0.0229476156879703,-0.0119028993482969,-0.0745810484722458,-0.0156517951890357,-0.0175291701533316,-0.0178705980839128,0.0002223825963515,0.003145081124463,0.0155044486019695,0.0091886526962866,0.0128999757520179,-0.0015052886124836,-0.0013561108032815,-0.0001313397560161,-0.0009347978576933,0.0024543678802663,0.0040076561140181,-0.0003092211118953,0.00073432881924,0.0059248960151285,default
55_7500_5,-0.0001165323898941,-0.0007178846200519,-0.0012392950540464,-0.0013732014945,0.0008279794923477,0.0011876620835457,-0.0017516138450226,0.0012761863618508,0.0164554573835977,0.0056421682696758,-0.0103717721568292,0.0330222310920747,0.0002504288168601,-0.0002660103605883,0.0046620860739538,-0.000885928027845,-0.0023028574954507,0.0004868338269485,0.0057181367936874,0.0077294118926216,-0.0116417247910607,0.0020305668949374,0.0018362982978326,0.0004184722268872,-0.0019561276674153,0.0003187404100277,0.0296365258039798,-0.0206257874733855,-0.0621680058176036,-0.0112872953619314,-0.0004300740633159,-0.0242401759484992,-0.0020035692430033,0.0038246078418725,0.0137860701117267,0.0034247786186429,-0.0039521296430861,-1.4932406782090471e-05,-0.0025069177919076,-0.0039678056029672,0.0005364102825832,0.0035871161481432,-0.0009292324471559,-0.0018835079905483,-0.0020520976971831,0.0120057904267682,default
56_7500_5,0.0023656423083007,0.0019553090675709,-0.0013621859617503,-0.0056682970373052,0.0033240378237383,0.0019688324950109,-0.0003595385355626,0.0030165601701563,-0.0170346459981466,0.0044733795562093,-0.0023465737758471,0.009828402172908,0.003269273279501,0.0035005948655245,0.0052585452564436,0.0006877803395259,-0.0005677575603954,0.0065153514882519,-0.0012478218873548,0.0042554032173587,-0.0128291573992567,0.0007572468680831,0.0070416705129922,0.0021974433744709,-0.0020714572266176,0.0082855388093571,0.0093797305644882,-0.0029011009587987,-0.04022307986027,-0.0058473882143182,-0.0146111082896182,-0.0220668390839771,-0.0020527310074313,0.0056816251600165,-0.0071726159669188,0.0044416263872231,0.0071744884117277,0.0014463275733787,-0.0001660604364163,0.0017255486460891,-0.0011658362055654,0.0011803264051217,0.0020648945781608,-0.0003827167137834,0.0002029801430713,0.0130785189455494,default
57_7500_5,-0.0003082696921902,0.0004800750879738,-0.0014436993520044,-0.0042342505441102,0.0049977649614724,-0.0026265439295781,-0.0015455974858873,0.0002264991920635,-0.0089874095195915,0.0027495174680913,-0.0088988514273806,0.0087846869860872,0.0033820407770376,-4.095520439924251e-05,0.0018846916174303,0.0019757696642843,-0.0003445145980409,0.0015763069530164,0.0028142325855215,0.0031313756380158,-0.0054484838134878,0.0002706362212221,0.0066334654797132,0.0166629025163752,0.0011596973466509,0.0222940526189769,0.0145435941852531,-0.0107797310595551,-0.0549710167332701,-0.0096396828065289,-0.018700931478145,-0.0113262001447858,-0.0041395579174874,0.0071638918389048,6.175072296506582e-05,0.0093865234974675,0.0054823980821476,-0.0069891138029084,-0.0044960820146804,0.0020491028665664,0.0009238632507598,0.0093275668975572,0.0010222356178641,-0.0015490118155092,-0.0034467571075592,0.010793837298404,default
58_7500_5,0.0003248178093861,-0.0005162654807275,0.0009933254146013,0.0004379102436759,0.0030848109106693,-0.0020927409434397,-0.00457316994355,-0.0015608567293039,0.0093965307590781,-0.0124095567224895,-0.0026631899825534,0.0309741605310394,0.0031939484784127,0.0002427406647081,0.0100417478155686,0.0032123414891185,0.000564411385215,0.0026131561581157,0.00455308399642,0.0058795158211566,-0.0085595332118926,0.0002315793633873,-0.0015823594805782,-0.0048687116268107,-0.0024159902542215,0.019354573233452,0.0115055698756816,-0.0168846041226923,-0.0393515763262996,-0.0083931469205644,-0.0100385617264535,-0.0151404599928565,0.0035618083430356,0.0013711461600906,0.0126513412525144,0.0025434794695259,0.0004398144892979,-0.0016107591288417,-0.0035527772528213,-0.0008235462483801,-0.0018329277045807,0.0014567108665958,-0.0001160297124529,-0.0028525055088535,-0.0046629601101305,0.0088411350189088,default
59_7500_5,0.0030659841495326,0.0008822089040975,-0.0018674815305294,-0.0004729444623604,0.0017886106811818,0.0001637979736928,-0.0017878519372855,0.0024016361682394,0.0153827141998906,0.0010215588032697,-0.0030783404633888,0.0060385307738732,0.0037363893116139,0.0003013350312596,0.0028590029768079,0.0049117315002371,-0.0039973826449635,0.0033336743191984,0.0052841359920842,0.007838805959231,-0.0042623819587583,-0.0012688759562932,0.0035670468724469,-0.0065519553171224,0.0045560254260956,0.0145393690957565,0.0282235563586254,-0.0195746902859946,-0.0562701576065745,-0.0126148929463172,-0.0146751922962504,-0.0163467835283165,-0.0052313035001395,0.0008201856625648,0.0169765712191547,0.0032133424359351,-0.0029862581187768,-0.0006964499503921,-0.0007296776449629,-0.0006582782203263,0.0015362137775496,-0.0026135322803485,-0.0036991808569097,-0.00188132745917,0.0006029675156635,0.0170287599651044,default
60_7500_5,-0.0013210068747022,-0.0016690756739633,-0.0008745291681272,-0.00159649805844,-0.0017408997583292,0.002114777919297,-0.0027062059968647,0.000947624150036,0.0081800532607963,0.0205867424984345,-0.0045701062702686,0.0276112672835033,0.0008980335315181,0.0005161997091829,0.0080772337071951,0.0020915136623995,0.000875603874739,-0.0009408070061586,0.0023733413573773,0.0035110799286632,-0.0096857264664126,-0.0003072306136666,0.0043641207658441,0.0028638924080709,0.0039451521569876,-0.0042997528543693,0.0289918258015431,-0.0215522314169333,-0.0701618419431143,-0.0100884001068767,-0.013936634246317,-0.0127993508926063,-0.0046276479108614,0.0066103052628206,0.0072005924671864,0.0053462651728329,0.0105719912529395,-0.0062613096454529,0.0032790372625864,-0.002595674296581,-0.0005073555233277,0.0031239125434284,0.0037405510847477,0.0021046891555823,-0.0017583085546383,0.0132903371136692,equal
61_7500_5,-0.0032081106118205,-0.0019292068587537,-0.0028827914343453,0.0009390130279453,0.0018153947193093,-0.0001833203961306,-0.0018905255346363,-0.000308844258533,0.0127264527400444,0.0142874740255087,-0.0056277406341095,0.0237470058039238,0.0014391451878123,0.0015465166333778,0.0045215716136875,0.001892411197514,0.00031270152716,0.0048990559680923,0.0048095942057771,0.0026079014276375,-0.0112199179108037,0.0043793273224718,0.0045271525432773,0.0059247874451072,-0.0003032416232884,0.0167057107608034,0.0128632527608313,-0.0127254286765319,-0.0603037791567816,-0.0139701576980978,-0.01014234004901,-0.0163649247510826,-0.0007640170285514,0.0059368842430514,0.011113182049667,0.0067308183610822,0.0011152685852894,-0.0053327922893285,0.0008023256437941,-0.0013216190115435,-0.0007704166295543,0.0029296768707599,0.0020428860005991,-0.0025157455611987,-0.0007176148725893,0.0119721991193242,equal
62_7500_5,0.000816060681359,-0.0001827373980782,-0.0050241257505914,-0.0051684679215474,0.0029307558210037,0.001530855708526,0.0004682257039253,0.0008251265779342,0.0052019345512149,0.01231499272488,-0.0041867122698505,0.0172517474618759,0.0003268889661226,-0.0016724854626444,0.0015130614225501,0.0030015255490506,0.0025059070305354,0.0077203025843268,0.0070430149464268,0.0007549482668497,-0.0117194767202145,0.0011137742621924,0.0020734566670436,0.0140881423153866,0.0019880748876211,0.0042254010951665,0.0113076795733694,-0.0179882402276088,-0.0584094132418962,-0.0070004486975901,-0.0156768048621131,-0.0154402126033752,-0.0031832671859759,0.0010193001668425,0.0092125735444306,-0.0020273091830859,0.0117857244606368,-0.0062164372576271,-0.0026948390381695,-0.0027386987678837,-0.0016041553982288,0.0004282784608578,-0.0010939016840378,-0.0010892335409645,0.0002263753181335,0.0108644482857061,equal
63_7500_5,0.0010486629659285,-0.0016668496257715,-0.0033180243010028,-0.0001729950184078,0.0043632096744856,-0.0014837405084251,-0.0038951166301324,0.0011907853506451,9.437897213523347e-05,0.0143231464418873,-0.015322993816824,0.0086498500241371,0.006269176334403,-0.0001207018794318,0.0060942207682948,0.0041239316364838,0.0035679250283469,-0.0020079468334506,0.0060263791819682,0.0085097761884149,-0.0084883135539547,0.0023376985786497,0.0034919417075424,-0.0092217601527806,-0.0034594554915964,0.0198080540989452,0.0233639110001212,-0.0153098803405896,-0.0290079905004084,-0.0164929510618892,-0.0120124538079279,-0.0158561542614266,-0.004136164425717,-0.0005537407560357,0.0035143866941299,-0.0010887870775368,0.0022097807491363,-0.0024314538071624,0.0010338642265503,-0.0024192128847138,-0.0045718272796143,0.0021775077464313,0.0002406885416255,-0.0021556630062513,-0.0016645050640375,0.0135998043494731,equal
64_7500_5,-0.0025016340124665,-0.0028393906450816,0.0003307240659038,-0.0026223712469032,-0.0005048325746887,-0.0002424275274507,-0.0001615825064248,0.0029177605025039,-0.0079517313877208,0.0098239816681807,-0.0002344108391218,0.0196403045562653,0.0032694392354322,0.0026784592164546,0.0063973628817699,0.0042376235836588,0.0009551802337436,0.002655145250324,0.0019893362857289,0.0029434171490265,-0.0190067586687874,0.0050157638184271,0.0016853005322688,0.0105802382792205,-0.0097595274253984,0.0179128885198853,0.0216862594572117,-0.0093143451127028,-0.0270871989061703,-0.0103696795238397,-0.0062919034682703,-0.0119987751137235,-0.0017415660609741,0.0036272011239615,0.0074026466667763,-0.0004148193309167,0.0076417059977046,-0.0021210250913985,-0.0017087297109872,0.0004531435283516,-0.0021750682201321,-0.0015701606254955,0.0015779330144838,-0.0013254407692883,-0.0015710424548068,0.0059264727813564,equal
65_7500_5,-0.0026392909895476,-0.0015260904282767,0.0003460132251665,-0.0019974456523069,-0.0007576228545172,-0.0003854352161151,-0.0015423175333244,0.0038813918262082,-0.0016459475023581,0.0098552763911685,0.0047955652656124,0.0158051491761801,0.0024344680685679,0.003807573732808,0.0070105079723427,0.0024771976927187,0.0015055268342162,-0.0011791041938669,0.0047218587753563,0.0017001257314024,-0.0151585275401565,0.0056078852703655,0.0055514383719626,0.0120760275360861,-0.004066047539759,0.0208348792825518,0.0182093677140221,-0.0136749616069326,-0.0539097081382189,-0.0080433771264589,-0.0070153291651147,-0.0043002903610852,0.0067836377090452,0.0050850937578944,-0.0004407568171964,-0.0012899451635576,-0.0002446958907339,-0.0032444514766214,-0.0008956960021401,-0.0008583955130383,-0.0006990785217157,-0.0029818490080903,0.0006036545251101,-0.0005478260591839,2.631545896359052e-05,0.0061420894394626,equal
66_7500_5,0.0008266377579026,0.0012361670660661,-0.002791614299831,-0.0007369723038947,0.0062233544727235,0.0010542370441009,0.0015611067596173,0.0002259799680789,0.0016389208698745,0.0044441137695173,-0.0110871650573045,0.0299155509197486,0.0014195993032936,0.000653992382996,0.0023434279893555,0.0005433188383785,0.0032608790069222,0.0023450672627092,0.0070029394979936,0.0035943920652688,-0.0124393735087887,0.0008303146798791,0.0074136781268241,0.0120119295980618,0.0037594960999491,0.0100511164084542,0.0290400208828588,-0.0028239070415878,-0.0659551882565943,-0.0219231029933292,-0.0231148947685032,-0.0163060568632926,-0.0033067056840265,-0.0006488546263107,0.0132391825846523,0.0009008172125628,0.0037956235167663,-0.0072044840976051,0.0017552167850284,0.0006236502974948,0.0007790656745426,-0.0025443691026911,-0.0010228528453816,0.0005872204229896,0.0021149033084921,0.006332089130189,1/2^lambda
67_7500_5,-0.0004150405312673,-0.0011594947537208,-0.0051397124039131,-0.0013457915572615,0.0060525408007269,-0.0014309824517375,-0.0011935931252071,0.0044758278450485,0.0163204039494184,0.0145742623009334,-0.0311948561256263,0.0175150513895235,-0.0001550709371297,0.0004178978187552,0.004522580451928,0.0019341618337123,0.0012111108779114,0.0010850220246239,0.0012236302716967,0.0016564673726066,-0.0126420954598869,-0.0006769748643565,0.0083461672361275,-0.0024370631786909,0.0156889663243809,0.0178682752342018,0.0244948276741069,-0.0159020374170721,-0.0776203482865821,-0.0121294228347125,-0.0030170201468027,-0.0135667216907605,0.0025350800267075,0.0060801823423131,0.0118961975192322,0.0092095991310504,0.0159373108646603,0.0006518031371006,0.0043729197840819,0.0008762746602343,0.0012144568226447,0.0005562175470349,0.0049209944259201,-0.0001898078276486,-0.003762548737219,0.0108303609466248,1/2^lambda
68_7500_5,-0.0050299566701277,-0.000640584767461,-0.003995645394557,-0.001029960858041,-0.0017038848971022,-0.0006163941613912,0.0004959108734828,0.0033339016825221,0.0063909658039785,0.0052401226082482,-0.0243578526142697,0.0192576170869999,0.0034174353719313,-0.0024373650795261,0.0041248470782173,0.0057434979139656,0.0015551114772281,-0.0002374875895608,0.0042631702986368,0.000874096203439,-0.0130182586088696,-0.0001398380773547,0.0107397911376971,0.0058569568013964,0.0006450848505073,0.0030730463335372,0.0218565602593963,-0.0225630791287259,-0.0465475260400734,-0.0009199213888976,-0.0045382620123067,-0.0216910882978759,-0.0051774531803154,0.0018952385944933,-0.0005812365601326,0.0036044170128123,0.0075721436153059,-0.0042353910252832,0.000802672577904,-0.0005482191578933,0.0005414713702068,0.0081998915637164,0.0004553979677013,0.0004167839052816,0.0020659835188849,0.0241456447040596,1/2^lambda
69_7500_5,-0.004362596066799,-0.0013534058213541,-0.0048316322982998,0.0030482297545132,0.0017059608957761,0.00458561221621,-0.00710413448081,-0.0008655523880624,0.0094226640614448,0.0184772505514382,-0.0083418422642507,0.0180210176084791,0.0042713663878906,0.0003405099142505,0.0016330356320347,0.0005597567431331,0.0024486558491459,0.0061169978590962,0.0079415401921097,0.0049917719576193,-0.007060216604231,0.0021980072767076,-4.32246299292788e-05,-0.0004616876209017,-0.0010590934026803,0.0217283260064708,0.0189663216324447,-0.0164263149800816,-0.0766989971386719,-0.0129026150996114,-0.0118587406693213,-0.0281342187988118,-0.0026687944068321,0.0057704106992874,0.0071699906664804,-0.0030272055237618,0.0046931736602742,-0.0012942525534435,0.0044335234342923,-0.0015085717634474,0.0025465101086152,-0.0012226745662937,-4.2823760533952994e-05,-0.0026639864110542,-0.003866650926051,0.0123432203934634,1/2^lambda
70_7500_5,0.00093888222569,-0.0009309294701374,-0.0003670347885295,-0.0010645890843781,-0.0020499132255781,-0.0065815129430776,-0.0015593212786369,-0.0008705892550198,-0.0051350307101748,0.0136218316989683,-0.0058910926822683,0.0309262491227922,-0.0007794691245453,-0.0011064046640563,0.0073791483504844,-0.0002882321451449,-0.0032904143162537,0.0043935997608907,0.0044369471728566,0.008704040007156,-0.0323182489128143,-0.0010237023963672,0.0153532165808174,0.0082086420303697,-0.0057349468266992,0.0112250141057042,0.029195819194744,-0.0153176213790534,-0.045054681535974,-0.0081606427333568,-0.0058952392909341,-0.0124896501108002,-0.0019575267708418,0.0094671387993579,0.011347992381722,0.001577836777188,-0.0045870944088644,-0.0051264068958968,-0.0036966295400271,7.37155893484574e-05,0.004134738894762,0.0065947296982126,0.0004364095950785,-0.0036685365565372,0.0005134028350635,0.0099574291823273,1/2^lambda
71_7500_5,0.0015169849157004,-0.0002485088850684,-0.0027253789323898,0.0026117341175427,0.0030089890578839,-0.0014179307479589,-0.0015064360087335,0.0076047486128582,0.0002945889827149,0.0015842324682876,-0.0003475257785284,0.0078477951104357,0.0039749002813816,0.0006511667851142,0.004375169812669,0.0059704314661635,-0.0005234487513766,0.004429845384208,0.0042474321959852,0.0061070836492525,-0.0146031950448864,0.000710437196027,0.0003020837960626,0.0098794362493951,0.0021999900120294,0.0165866827524233,0.0197037543175858,-0.0227982331106243,-0.0247825640451306,-0.0113490231636342,0.0010086401629939,-0.0152162765953012,-0.0028341891075945,0.0035955654794386,-0.0042948694948806,0.0037017468973624,0.0003019876323367,-0.0019210382036357,-0.0039556055404113,0.0027448488600776,-0.0033238567089978,-0.0013327783399729,0.0016203604287756,-0.0013793120780635,0.0020538420698174,0.0191126747906232,1/2^lambda
72_7500_5,-0.0022891171098815,-0.0010604810348271,0.0016725422695939,0.0011178186134036,0.006847298005591,-0.0022531212119795,-0.0025760069372677,-0.0004239213344757,0.0037398555296064,0.004856604245195,-0.005357808132801,0.0173085899262873,-0.0003430122960705,-0.0009218195574083,0.0040237202272368,0.0036046747881854,0.0055393650751848,0.0022410952939634,0.0073423996577514,0.0043442422315882,-0.0100699842459035,-0.0076234509161507,-0.0019668465351985,0.0054675475862727,-0.0041644852490396,-7.237538056983767e-05,0.0300830111875609,-0.0085099406313152,-0.0080699404484401,-0.0118196513408484,-0.0014143137662931,-0.0146588879683041,0.0023156478282115,0.0033245848968739,-0.0101096941499127,0.001569411199584,-0.0049581190235937,-0.0023850497388028,-0.0042148065511482,-0.003616308643109,-0.0029774347231903,0.0007290158562176,-0.0033492397422992,0.0019584195554081,-0.0062194025645805,0.007475304446416,default
73_7500_5,-0.0044030691703563,-0.0061297782216273,-0.005103760869398,0.0005921403513075,-0.0029309074917302,-0.001852867255161,0.0028370895383161,0.0012116625046924,-0.0085518026085375,0.0119491027192535,0.0002160827939879,0.0129229363375827,-0.0033311643257438,-0.0020367925757937,0.0094973616080527,0.003283128644357,0.0017710491966024,0.0057830135913108,0.0055241514866085,0.0030670231991967,-0.0027425225385086,-0.0004507122249896,0.0107736769034665,0.0097781970827799,-0.0020147128064998,-0.0011967817881541,0.0196365169292257,-0.0100776996842444,-0.0204577735812734,-0.0110688364711996,-0.0057026549391936,-0.0144331779076729,0.0059810261349523,0.0025637405343175,-0.0079743938583324,-0.0006634167043646,-0.004301280862111,-0.0071059355896185,5.522066981520181e-05,-0.002580085317224,0.0036683558141639,0.0081390044939999,0.0008262231170413,-0.002079337125601,0.0016638095607238,0.0088090065066429,default
74_7500_5,-0.0028257308467337,0.0020394932991179,-0.0013536592910066,0.0005642024658032,0.0013183826162623,0.001655522006214,-0.0003319240616248,0.0010957653030089,-0.0082727118643879,0.0153601203394745,-0.0104300590206198,0.0168486710300278,0.0025599496866466,0.0036737681163675,-1.846666061862569e-05,0.0022009886700322,0.0023771070320408,0.0023182103510836,0.0023773888151241,0.005271745510046,-0.0128541452922923,0.0041651901811348,0.0061413165239373,0.0035277693741825,0.0040607427339024,0.009860089886917,0.0018441928786591,-0.0097786835366272,-0.0523323646646894,-0.0002115293583922,-0.0193971303272311,-0.0245619367851577,0.0025904810152344,0.005325668129515,-0.0003999589133601,-0.0002015859964339,0.0264501120122098,-0.0011752770571986,-0.0007071930452608,0.000128761006744,-0.000411360145765,0.0096576081361851,0.0023565560727094,-0.001218670201354,0.0010822273843316,0.0163232596035034,default
75_7500_5,-0.0068706733440542,-1.4284480930638595e-06,-0.0057781208501618,0.0026788348997938,0.0017490727796671,0.0033411375432687,-0.0011556689234628,0.0034491222055266,-0.001026094774524,0.0159475859371787,-0.006835725952554,0.0234142206311266,0.0010168003272545,-0.0001748593386863,-0.0005286899687529,0.0005122081866224,0.0033794187567313,0.005009770458001,0.0044950785391361,0.0041877599595789,-0.0120173912969476,0.0021758621433677,0.0042018431249777,-0.0013980049048794,-0.002047189464686,0.0094024698871166,0.0122029903991287,-0.0169437268647267,-0.0417485788730467,0.0005782981184091,-0.0151504757458445,-0.013283809212102,-0.0034348451901866,-0.0014124195963068,-0.0036772232420973,0.0002029158822242,0.0063560737733433,-0.0014151910967584,0.001875572936571,0.001575340708863,0.0062112563319433,0.0059496003078393,0.004251097460391,0.0004958270933856,-0.0020938160338938,0.0126732959610798,default
76_7500_5,-0.0003106039481946,0.0013745223564621,-0.0001834088174778,-0.0025219940277909,0.0021828475220437,-0.0018057915131006,-0.0012536821785787,0.0032371859957509,0.0094790531569452,-0.0084990215462521,-0.0171721386047343,0.0108341700684164,-0.0014888273351384,0.000458164607108,0.0083013307258719,0.002962745617365,0.0015016791743122,-0.0037954013674951,0.0043352312962507,0.0024829384468352,-0.0193539907591098,0.0050220126837487,-0.000473734087025,0.0126645882310678,-0.003567950171399,0.0257195827331894,0.0284412091215969,-0.0047696140925112,-0.0465081795008016,-0.0052612139417191,-0.0066812156281008,0.0042775183082336,0.0065694364683709,0.007584926787824,0.0062048810275901,0.0044401788140548,-0.0061149993837982,-0.0031583747992391,-0.0031883983606086,-0.0079371059993359,-0.001005176636446,0.0040023049610948,-0.0010398116527486,-0.002892511924585,-0.0013335883477507,0.0028570464705384,default
77_7500_5,0.0014943973470764,-0.0057619202537897,-0.0022083921554534,0.0045127609424386,-0.0042101353879845,-0.0046930364848214,0.001259485378185,0.0050218401468761,-0.0054479421560612,0.0068762773322838,0.0083597751389458,0.0123037281455289,0.0017701459668321,0.0021756755745128,0.0066591230967792,0.0072053979154681,0.0042767939018885,-0.0002249396073452,0.0056009838659046,0.0087876345436231,-0.020407941680724,8.733772600724547e-05,0.005536832831219,0.029236041499572,-0.0070904128872886,0.0254835526522829,0.0129800034780058,-0.0189375893780232,-0.0193536470742242,-0.00421322050411,-0.0092809321533843,-0.0135665436848505,-0.0109071806777048,0.0027311018031199,0.0001315268655843,-0.009839979120736,0.038138351316969,-0.0045027615461088,-0.0071618169191236,-0.0005952158468585,-0.003092951355571,-0.0034779917000365,-0.0016769700292853,-0.0011120138599992,-0.000273587556533,0.0081538340285347,default
78_7500_5,-0.0030649105279999,-0.0036279964284724,-0.0017934033782141,-0.0020247436229804,0.0046938307100541,0.0013457586443267,-0.0084447526157203,0.0040387804221359,0.0207502212290629,0.0136946869392327,-0.0015442952426045,0.0255274193178694,0.0003667013236416,0.0005416966797016,0.0043609582159235,0.0010388815267398,-0.0009953140088922,0.0030473296220999,0.0024237671829867,0.0014334227411314,-0.0040448074793127,-0.0026550290485932,0.0042348017271922,0.0118276344465351,0.0118188419304795,0.0022947669445349,0.0226146472055003,-0.0160717956399423,-0.0753275193374186,-0.0180904144105553,-0.0136016341126209,-0.0169232675269525,-0.0036849102852957,0.0006944990935129,0.0090719706958876,0.0066906416058525,0.0196737884803697,-0.002934477368705,-0.0015750072749487,0.0028716650708445,-0.0002504025284898,0.0016141768773572,0.0033378068787419,0.0003844615907766,-0.0028248746752109,0.0068714124211365,equal
79_7500_5,-0.0062524896137528,-0.0026624723598459,-0.0023706096020774,-0.0002613237047385,0.0023358832026853,0.0014481472282769,-0.0026836506607746,0.0016886793043948,0.0068055303126418,0.0028093348509565,-0.0101625224383657,0.0229578925005812,0.0021584197884153,0.0026189139628472,0.0086064718542014,-0.0023500923472188,0.0004422460352073,0.0028403001632364,0.0048236386816244,0.0032702095219544,-0.0127493779982481,0.0058846462329708,0.0003172309341054,0.0020528037844541,0.0012536370300138,0.0205220730172549,0.0256556530594593,-0.0222216920716923,-0.0535037707693493,-0.0083933290007474,-0.0137588564341155,-0.0125978581146912,-0.0040223394316763,0.0017240392313072,0.0050300293744837,-0.0018769981241817,0.0097962605579171,-0.0089480606424185,-0.0007148955267545,-0.0003188124040035,0.0020282963781612,-0.0061282481307461,0.0068119912696786,-0.0027545780861891,-0.0010117638468626,0.003384321924202,equal
80_7500_5,-0.0022370287015728,-0.0003106956061693,0.0016644793321577,-0.0014716866845397,0.0002529299831119,0.0035829775259617,-6.848643030742445e-05,0.0011709242372151,-0.0073635273570365,0.0159210960687197,-0.0302525156764198,0.0348549537078041,0.0078778641145346,0.0015527872938827,0.0067935942619643,-0.0003573922504316,0.0016852541183245,0.0012541321605995,0.0009568974310915,0.0009208197001054,-0.0149973330904877,0.0020212977519471,0.0054406294684389,0.0043300951538278,0.0092351734677968,0.0034559434610023,0.0272295782972624,-0.0093527104491667,-0.0801184981923085,-0.0182996735635191,-0.0019963921897327,-0.0082761299683052,-0.0048604299376672,0.0045718901890858,0.0074275263230649,0.0050640484133109,0.0146533183444898,-0.0010189731701477,0.0006502074157908,-0.0009485619204751,0.0056255520261932,-0.0040118310968102,0.0015443180134546,0.00437616317844,0.0010286772348036,-0.0047854821917101,equal
81_7500_5,-0.0017771079799009,-0.0008801246900042,-0.0045376232703962,0.0016677624549615,0.0017944778922261,-0.0020364667360564,0.0009719366298775,0.0010619671668962,-0.0070758687841992,0.0154172929779934,-0.0040249887786384,0.0048027544929504,0.0025583621535451,0.0015461348136596,0.0036497051735548,7.765397731618783e-05,0.0006738875324489,0.0021981612405841,0.0025265816170978,0.0037935575971989,-0.0121840056713825,0.004404533921075,0.0039628041901545,0.005236749712332,-0.0038013460762601,0.0182242051095969,0.0132235016916854,-0.0153096464595971,-0.0526128200942952,-0.0064357834974034,-0.0133101961065634,-0.0110088608745757,0.0067498484300991,0.0072435606814736,-0.0014865169698203,0.0052378776246621,0.0089291289401995,-0.0007021751643986,0.0001031182440856,-0.0006023213470464,0.0006585351342095,0.0028394037514641,0.0036094710653623,-0.0036139195308841,-0.0035594860987257,0.0117227497443447,equal
82_7500_5,-0.0031599335426411,-0.0005359793583222,-0.0020160328861127,-0.0026351359252505,0.0029382916025366,0.0016246441285349,-0.0004325005389523,0.0036581715517986,0.000182001899236,0.0003059148799502,-0.0022071673412843,0.0286618371402655,-0.0008351913497722,0.004198572642206,0.0064173556866196,0.0007743463190544,0.0019008427896834,-0.0018911727799962,0.0049311059608626,0.0034886738686991,-0.0225343808704264,0.0023521099799886,0.0085309770835833,0.016470743711965,-0.0017914201162024,0.029306641018474,0.0288167483233025,-0.0079434920564754,-0.0422107952521895,-0.0149556115672563,-0.0138982693323945,-0.0059514583239396,-0.0010617722448592,0.008921823109727,0.0098199709751122,0.0001982817455282,-0.0076852382108493,-0.000357697476393,-0.0043676617813874,0.0002072351354694,-0.0026240385249534,-0.0001535069899641,0.0022253713696398,-0.0031534153327482,-0.0063830991506533,0.006580436362431,equal
83_7500_5,-0.0014047897659558,0.001780297419903,0.0013147752687146,0.0001452667197415,-0.0010472125376147,-0.0003099688412704,0.0014283956567281,0.0017074621827793,0.0028328899094228,-0.0005911025978438,0.0005182352642734,0.0116431799363114,0.002968698794058,0.0014606257537986,0.0054281079357733,0.0048264804302008,0.0004391249735864,0.0023547503353954,0.0061833979684796,0.004903334773907,-0.0132323986976417,0.0040912087936738,0.0072838921741915,0.0091173516263563,-0.0030040917397422,0.0153857979674285,0.0093517359029459,-0.0124035075280619,-0.0422343056756645,-0.0050599467022818,-0.0115282364789079,-0.0033319223591807,0.0047277420238085,0.0072766761180256,-0.0014397808061637,-0.0015295209114292,-0.0019199258200543,-0.0050261622072626,0.0007175477188228,0.0005112877330174,0.0004725837821199,0.0025830662508424,0.0005837700808904,-0.0004334562621809,0.0012231643212741,0.0092183228701293,equal
84_7500_5,0.0016006948674404,0.0007978927789685,-0.0032853891453821,0.0015624274850292,0.0098619020358704,-0.0031604155849276,0.0023508693944314,0.005413800152935,0.0052583958462519,0.0407454595102317,-0.0128952891222202,0.0075861563715806,-0.006724800529206,0.002251753047962,0.0036811814182859,0.0004512902738823,0.0008734460073737,-0.0027181383921291,0.0043335973381695,0.007178100824316,-0.0130351708911455,-0.0011953842590915,0.0008028623541202,-0.0057803833730526,0.0030378467864736,0.0009198641526853,0.013179135274017,-0.0013535769526397,-0.0759905000076846,-0.002120639098846,-0.018454635248382,-0.0169837301120862,0.0056734230833182,0.0065505997677858,-0.0001348826385678,0.0066578651491523,0.0115325347967819,-0.003200680442218,-0.004301790540588,-0.0019538781334517,-3.62817045399989e-05,0.000189372805033,0.0058249949965989,0.0033710310861507,0.0009958544329007,0.0096982540455739,1/2^lambda
85_7500_5,0.0023213452027334,-0.0022135347017212,-0.0016879477908435,-0.0015710684774112,0.0026119107034663,0.0018570360996231,-0.0033122404845836,4.730942114871882e-05,0.0139826585763387,0.015308256888551,-0.0038001552680083,0.0267511969238759,0.0015855445690791,-0.0026579125464929,0.0061795097361288,0.0086564356125736,0.0047537496748183,0.0024096075555409,0.006999274111647,0.0020146937615773,-0.0103603626940253,-0.0012718813132526,0.0070454641467916,0.0001937381212334,0.0014016985798756,0.0116063021463297,0.0161698601047503,-0.0152534699157905,-0.0682838018518173,-0.0054745456567811,-0.0084399239180085,-0.024123439337309,-0.0004007964539634,0.0060711434028477,0.0009856297690119,0.0028638364058336,-0.0034575959134589,-0.0039012585585891,0.0030080934781122,-0.0016072802625232,0.0030885711026939,0.0040174664607976,0.0025307050473024,-0.0035962449377021,-0.0036433527492348,0.0123292124114356,1/2^lambda
86_7500_5,-0.0025199852870886,-0.0015335076799243,-0.0040696286115437,-0.0018728323929944,0.0008865219780802,0.0052870996750807,-3.32104920523258e-05,0.0049764004199022,-0.0023017514184024,-0.004298176629105,-0.020623222002283,0.0313698077505535,0.0010720123482466,-0.0010529297696341,0.0003536121277704,0.0050460077511593,-0.0005496779566382,-0.0011178159267667,0.0092599215492053,0.0096806997006546,-0.0133921205765685,-0.0060392928957296,0.0063058298397837,0.0070619083558363,0.0022858808453495,0.0035081954085122,0.0155213552542602,-0.0214110354248549,-0.0402823439481633,-0.0046562725692137,-0.0140533828467583,-0.0256635314348559,-0.0038938764977603,0.0059239132025189,0.0015151599586862,0.0044155157100382,0.0019535682906179,-0.0044249945328114,0.0021715641802508,0.0015570845645442,0.005601561643522,0.0076260789182942,0.0063013768153637,0.001471738256768,-0.0028738962623347,0.0193578971239417,1/2^lambda
87_7500_5,-0.0008736792010342,0.0013570352230593,-7.350763084584602e-05,-0.00095208213811,0.0008197308909646,0.0006158777814794,-0.0005651300667893,0.0035403148543848,-0.0012741385149216,-0.0128825585476015,-0.0101532080265804,0.0170076175003907,0.0036829399886485,-0.0005967479409044,0.0089252889921897,-0.0011464284722259,0.0021489185633013,0.0051486698092598,0.0034476871976851,0.0076718163962733,-0.0162132976379339,0.0016501557850344,0.0027739856465214,0.0027261020700023,-0.0019954227047932,0.0014780041824603,0.0027811590819354,-0.012718922794165,-0.0362114165718523,-0.0017415892513128,-0.0131006818502502,-0.0090959019319792,0.0061907260670068,0.0074054019703858,-0.0079252064945819,0.0059060359554961,0.0028105217927442,0.0008468464157408,7.43292415101469e-05,-0.0005780511845832,-0.0009318938806856,0.003452265576477,0.0015525309525161,-0.0017574273334716,0.0042160853858568,0.0164783706020741,1/2^lambda
88_7500_5,0.0014151260663414,0.000892208399852,-0.0018414484004394,0.0042634793821774,0.0040956277620414,0.0062613944716808,-0.0012497063347383,0.001498432332742,-0.0058811684569347,-0.004465727014028,6.671559638064077e-05,0.0211326499146962,0.0019416098985266,0.0051619256388596,0.0035330389773894,0.000143578307141,0.0026309490744237,0.0079562995979009,-0.000133227259906,0.0016445620610962,-0.0300986348368829,-0.0014253112366285,0.0069214885001194,0.0083770036321388,0.0023831038952638,0.0096841628232867,0.0076309295638108,-0.0173802167387459,0.0144959357635231,-0.0133661533010694,-0.0112426511297223,-0.01500534963473,-0.0266582333391606,-0.0031634826682565,-0.0090733877770422,-0.0008493628950619,0.0127452467719189,-0.0037313121927829,-0.000371555418548,0.0006555792912238,-0.0017006942727986,0.0087849123108541,0.0013562342797287,0.0062942470029603,-0.0004452683230067,0.0159212519136905,1/2^lambda
89_7500_5,0.0002302069874825,0.0007835102648743,0.0029068115799942,-0.0043055125906784,-0.0049625028645255,0.0044257236864443,-0.0002513268506873,-0.0009766074412839,0.0167132124371411,0.0075563058338702,-0.0060319201544011,0.0208441143361933,0.0010647972738349,0.0023013877128281,0.0084539293460085,0.0092985794287212,0.0006602308533583,-9.30135953743615e-06,0.0034058461655036,0.0046004510113579,-0.020835894549038,0.0010186942768519,0.0063968367380363,0.0110558307443352,-0.0087611389715296,-0.000859323151546,0.0176632565379902,-0.0145638666651252,-0.0418468300222875,-0.0076889302053356,-0.0142421617369309,-0.0060776559328503,-0.00012117575576,0.0034424306219599,0.00154380399937,0.0017425929941151,0.0019854913470969,-0.0044191431976969,0.0009250852823175,-0.0009199637333405,0.0065489731907786,-0.0002615757321238,-0.0016046662833584,0.0015529622601964,0.0033215068557461,0.018694723378842,1/2^lambda
90_7500_5,0.0015610626617563,0.0015047452236667,-0.0043631663987431,-0.0079672314236578,0.0029124618572833,0.0048243939294622,-0.0019514502705108,-0.0042217181973849,0.010873529400649,0.0009300032656138,-0.0104380134742029,0.0167056842440754,-0.0038012472258963,-0.006285431467343,0.0168953189747256,-0.0056409721753419,5.9974342275982e-05,0.0102967197811904,0.0019306272682998,0.0033949899489592,-0.010604086975555,0.0047454977249045,-0.0001326344785337,-0.0093466452127438,-0.0015562176858814,0.0180758376700562,0.029629901366825,-0.0108679325143676,-0.0534378464140239,-0.0181282191773634,-0.0075379588189709,-0.0159905970111675,0.0027243052660163,-0.0046740485947258,0.0075848990034238,0.0015588095322079,-0.0098798181620539,0.0004759270655133,-0.0010031639612309,0.0003253832575819,-0.0021823807357856,-0.0011894763080118,-0.008681008150289,-0.002224793566737,-0.00212648719969,0.0057476283385618,default
91_7500_5,0.0002184793816606,-0.0028164829357463,-0.0003221181514785,-0.0004283552654246,-0.0005926241239222,-0.0062608402829548,-1.1943630094930104e-05,0.0031085504559766,0.0082752809606744,-0.00275769220585,0.0062089522200593,-0.0059849935982628,-0.0063832963119617,0.0101865159488819,0.0104837207333764,0.0012769910902352,0.0063006190144994,0.0086152513812885,0.0059669519169289,0.0119783702414925,0.0024204479076642,4.956922352248964e-05,-0.0071050329957124,0.0082545257618504,0.005316021431054,-0.0003504356552383,-0.0026275790757493,-0.0013201988262532,-0.0414436692862167,0.0046588154472123,-0.0025294642066857,-0.0142543315132311,0.0056779409221744,0.0027024321851435,-0.0105058431186854,0.0060320630802392,0.0127846133031028,-0.0043672577992634,-0.0029286750648333,-0.002570068585089,-0.0010899854610727,0.0031351757604767,-0.0029284770459797,-0.0050492196994605,-0.003833881547887,-0.0028414535513688,default
92_7500_5,-0.0030342799820467,0.0001425989482866,-0.0053675246935937,0.0024452846918519,0.0014882691534582,-0.0037217993262928,-0.002902485566735,-0.0004126396962732,-0.0145427493553108,0.0090025567910731,-0.0093576700241569,0.0155436329159566,-0.0016053281140842,-0.0020024248750167,0.0114530613560523,0.0049602092150628,0.0007057691354539,0.0003286716222936,0.001612217849845,0.0048462119831361,-0.0091658460658336,0.0012680062280922,0.0079550696868255,0.0041566251866315,-0.0050124164009276,0.0230846748452649,0.0084419639984669,-0.0057927656732566,-0.0597659436144384,-0.0089978564175038,0.005729803702975,-0.034069640028029,0.0021269790591041,0.0028742538449184,0.0020951581837504,0.0052159900601869,0.0033588565665493,-0.0075407904561036,0.0013294966306758,-0.0045575783556121,0.0017620531613584,0.011464221124309,-0.0078356074582401,-0.001441145103085,0.0068124268530117,0.0050326243560279,default
93_7500_5,-0.0071384944875554,0.0017444709836328,-0.0011885269671889,-0.004359929012909,0.0040040966597114,-0.006845872545517,-0.0011175974891236,-0.0018756510407378,0.0126128280371326,0.005255032343199,-0.0060711434664214,0.0069303151989703,-0.000196926010412,0.0013609067549111,0.0094292232999648,-0.0002723153169388,0.0017129850359391,0.0095039346396875,0.0113890085303588,0.0091461949418346,-0.0011287581250502,0.0007234423251136,-0.0104280949672674,0.0045201672551178,-0.0031550948508769,0.0194202863016018,-0.0027293101236841,-0.012880326272586,-0.0302285918917955,-0.0117961801111553,-0.0157274127994879,-0.01566663655873,-0.0001974246781187,0.005942632053938,-0.0096254609524109,0.0061468130224333,0.0036403927286611,0.003941448407822,0.0014380458695624,-0.003637519889847,0.000258022429104,0.0052793174357777,0.0013953629935773,-0.0016815800966108,0.0012607277273084,0.0060190093993198,default
94_7500_5,-0.0028511505675253,-0.0070523800202762,-0.0033315440400927,0.0012851470155283,-0.0023912813086756,0.0031264035036109,-0.0071845978565099,0.0021014979993552,0.0010666062517811,-0.0011821350478861,-0.0018957694758226,0.0291677819618907,-0.0003967859174514,-0.0040367502450158,0.0104931208548459,-0.002647386547244,0.0019512254391053,0.0029252659329055,0.0047936341401981,0.0057537287097653,-0.0072869873809857,0.0003360088997262,-0.0042525831227216,0.0092690324888932,-0.001544464717786,0.0168745659420311,0.0052253156146131,-0.0176217174097842,-0.0472618218815926,0.0034831526377008,-0.0065765992222736,-0.0084325930386896,0.0035579827918069,0.0019910871181209,0.0042775882352189,0.0002766352159759,-0.0113775745023432,-0.0005961135345415,-0.0013261264817541,-0.004305479236275,0.0064203059980798,-0.0041519309527729,-0.001559658358242,-0.0028290494956863,0.0007922628576879,0.0013587859572176,default
95_7500_5,-0.0001153609728333,0.0011580605049125,-0.003542965165572,0.0031969392456493,0.0019116140872503,-0.002480660384707,-0.0009729555004955,-0.0025674234568446,0.0016068259877482,0.0101117541248104,-0.0120465235828952,0.0044600289796826,-0.0037628570745335,0.0019168910358231,0.0195409089572669,0.0016092088506467,0.0003289194712443,0.0061970626734075,0.0032836061428054,0.0167691802623194,0.0033867143303449,0.0003480269095935,-0.0135956546814916,0.0092695704743662,-0.0054905607985831,0.0120478594075516,-0.007392993642007,-0.0158996930872202,-0.0213619559676974,-0.0053407900906248,-0.0027967577594392,-0.0028629601039588,-0.0010508561336913,0.0095386307032544,0.0015068382880033,0.0030773807323741,-0.0003718700079992,-0.0039383654507308,-0.002569184829631,1.54288766293915e-05,0.0028010608428838,-0.0006568540446862,0.0048354445133747,-0.0006870438106102,-0.0024532074783503,0.0003080428950863,default
96_7500_5,-0.0024624521025376,-0.0005604225029081,-0.0024770948272298,-0.0026136272152024,0.0011845775391682,0.0003872281709925,0.0058830602108136,0.0035183998556044,0.0017651914795895,0.0068894965638916,-0.0194647308747145,0.0164535414500425,-0.0032553863144665,-6.719362151632254e-05,0.0078230121712745,-0.0028973821700801,0.0037067715383756,0.0020391519481991,-9.89492334717286e-05,0.0051143926540195,-0.001736424565687,0.0027571942260505,0.0041984781173965,-0.0053981878160779,-0.0023883834990919,0.0134092423728751,0.0163939890813397,-0.006008304643683,-0.0349908690756234,-0.0032250540680715,0.0032620884148863,-0.011030754472909,0.0063066444366607,0.0111977173876448,0.008913078026206,0.0039118493208886,-0.0071846591010579,-0.0015928242301066,-0.0039167318298573,-0.0001053597440231,0.0037590267943783,-0.0021472337907842,-0.0021650393778201,-0.0019675617595419,-0.00072586325856,0.0106847305519267,equal
97_7500_5,-0.0074561535732238,0.001750954654852,-0.0006578232149542,0.0016043633796705,0.0011489223916312,-0.0006302816474111,-0.0051468751687571,-7.08236512525457e-05,-0.0117437470016537,0.008427754012959,-0.0125044867315133,0.0259937444701011,0.0013945789157229,0.0020231171458281,0.0070000261271543,0.0001097238705246,0.0005453263235448,0.0034539021481878,0.0043809448723971,0.0022853814163418,0.000385105251339,0.0010796950362667,-0.0009282554450341,0.0174121798733868,-0.0024739349508334,0.0037674675808182,-0.0056153347358659,-0.0158787974110377,-0.024844676048752,-0.0075029225387842,-0.0115075094682278,-0.0157507933681233,0.0006341933516588,-0.0008524768983494,0.0041166563995921,0.0094822915070944,-0.0023664198398808,-0.0015362369491515,-0.0009539168965574,-0.004860964860705,-0.0020690145647069,0.0081551700354206,-0.0058712421323807,-0.0071520174289512,0.0005762855827535,0.0083808221153033,equal
98_7500_5,-0.0007567953437052,-0.0002437689435742,-0.006065997022932,-0.0025068673397743,-0.0005434260698815,-0.0033807410959754,0.002766265842349,0.001482601844002,-0.0004101241865034,0.0037623257598089,-0.0155329050186459,0.0277515576041076,-0.0034750648452528,-0.0030733607609202,0.0097381309638561,-0.001584146698968,0.0003451491507044,0.007109702633808,0.0017944097134713,0.0088923575876427,-0.0010613470721141,0.0086556666562554,0.0075674669491083,0.0012713347353981,-0.0067084880371639,-0.0001016815273262,0.0060517750486276,-0.0081716325711855,-0.0548550487857172,-0.0017388572267096,-0.0122720318001471,-0.0155362937957076,0.0004561048055825,0.0077933150746639,0.008935547702945,0.0034237713390275,5.527398855093776e-05,-0.0015446305652218,-0.0025432939829993,0.0015990624539345,0.0036577002820302,0.009920338498953,-0.000867376345004,-0.002341956292669,0.0004925360142048,0.0110553408557808,equal
99_7500_5,0.0009291071992898,-0.0057213943501595,0.0011241877413945,-0.0010965684917778,0.0052572042259005,-0.0015863754197874,-0.0024516471814861,-0.0027484085053477,-0.0108431901307441,0.0077670109669938,-0.0048127566970511,0.0250895175071855,-0.0034819007917578,-0.0015783444736991,0.0115865659535241,-0.0014714814788711,0.0028928932690436,0.0017993105086238,0.0022222445552416,0.0045554161425059,0.0029156318641461,-0.0004062945209923,-0.0036931921025303,0.0072131960847807,-0.0049003361207584,0.0058212893337196,-0.0088814275231953,-0.0167968115595258,-0.0254002942117615,-0.0021329651896237,-0.0098035165193453,-0.0161074270986851,0.0008943619546375,0.0009454366298171,0.0006745587423978,0.0047085100700322,-0.0028890957690219,-0.006380315644053,0.003237323488743,-0.0032753151507955,0.0026972984336521,0.0050952777210272,-0.0009587496859543,-0.0003931249231298,-0.0016077478164725,0.0080710656254978,equal
100_7500_5,-0.0034104928016289,-0.0012487239315818,-0.003186562696091,0.0053274291675065,-0.0091096440516633,0.0025838534193913,0.0101822494907823,0.0003521302024822,-0.0053001032259486,0.0009324583265632,-0.0040286307536345,0.0030185392312767,-0.0033369344721523,0.0005416932194635,0.010045183795043,0.0030400441323458,-0.0002657807863722,-0.0008078522509641,-0.0004037894893525,-0.0019472629005215,-0.0292745354920979,0.0106128308917397,-0.0010645642670561,-0.0032404476511292,0.0014422438850029,0.0525132553019182,-0.0038291079861865,-0.0053715595030056,-0.0351885631958362,0.0064921198977885,-0.0056381936625225,-0.0161869160802118,0.0189719785124687,0.0137224584570755,-0.0031988077481078,-0.0046099736994382,0.0067255866016216,-0.0011855776114878,0.0135540325536459,0.0013618576776242,0.0009670743775827,0.0055822036088983,0.0009764579444997,0.0014689701648607,0.0130442133493253,-0.0045183863096205,equal
101_7500_5,-0.002147847768911,-0.0018189070406952,-0.0025810408904233,-0.0019694882690952,0.0045331145134074,-0.0017455688272664,-0.0030970172578832,-0.0005437612083901,0.0005680335691826,-0.0060539363555597,-0.0066554652551763,0.0276260923553363,0.0050133548949097,0.00370773981748,0.0027021362431109,0.0032287183870022,0.0049883381339163,0.001142304384118,-5.4728702891720185e-05,-0.0016563842991506,-0.0152215790413153,0.0001243827154785,0.0013378291616955,0.0074870721139384,-0.0080740553596761,0.0241016416873315,0.0019990840943915,0.007831452562604,-0.0189159548676607,-0.0080362849052898,-0.011011684968658,-0.0035851910536477,0.0072386225360778,0.0022175296704888,0.0096037789450664,-0.0012694810566686,-0.0061376357476097,-0.0076594594420381,0.0038722611319409,0.000726465826359,0.0043762117818263,0.0045984777599527,-0.0006414667384807,-0.0024098234645067,-4.908048248219095e-05,0.0013672048634872,equal
102_7500_5,-0.0023914179880262,-0.0019506940051042,-0.0025125619871079,-1.2525744060960897e-05,0.0002976159953712,-0.004076393433106,5.205623190217692e-05,0.0012408522146975,0.0154703937524637,0.0133694483902268,-0.0036073886034786,0.0094433499539127,-0.0011607110329964,0.0025318077529451,0.0133573128332351,0.0045651556196139,-0.0008516035044062,0.00633654265885,0.0003527877796666,0.01091688597693,-0.0051857629727458,-0.0004221843207478,-0.0033003808868923,-0.0013507077475833,-0.0023933235396269,0.0118672998720283,-1.3366409168347655e-05,-0.0084618623364965,-0.0539025127078832,-0.0031445973832783,-0.0146830129890429,-0.0117144539132873,-0.0007141536723999,0.0042719919098449,0.0031028804922556,0.0019889569479831,0.0101911836343591,-0.0024354021031681,0.0014953740565481,-0.0006967992898135,0.0020668185673528,0.0029934169557194,0.0008581036118699,-0.0031569226860421,0.000189359299207,0.0016151895815572,1/2^lambda
103_7500_5,-0.0061842943351969,-0.0020050694068731,-0.0042071418197207,-0.0061198809750526,-0.0047790562789048,-0.0107604923446134,-0.0046911554091706,-0.0002249064341856,0.0122256457947431,-0.0198737019709516,-0.0043576409466334,0.0310683335204584,0.0022896083409119,0.0005512358667502,0.0108549427790753,-0.0046886923062152,-2.7950878687699013e-05,0.0061070687017639,0.0001905693168081,0.0115194250037295,-0.0057953452272381,0.0032454307343558,0.0116472786078198,5.872966384045571e-05,-0.0069617844912542,0.0235786517217886,-0.005137923975578,-0.0093756590780906,-0.0261047730061266,-0.0033274911665728,0.0032461345868357,0.0013144132643771,0.0090761021019575,0.0080368920404443,0.00083573905703,0.0017880645631092,-0.0015614471405936,-0.0096132834261295,-0.0005431946761244,-0.0042326386863194,-0.0078786025709724,0.0029392088035644,0.0007343827730119,-0.0038959532805005,-0.0055969582558858,0.0063003500405022,1/2^lambda
104_7500_5,-0.0004343964854618,0.0011639482835207,0.0004333824771083,-0.0005358670756529,-0.0042587510635097,0.0008864766200107,-0.0018692450882486,0.0020252964763133,0.0143267235867469,-0.0037415000237745,0.0018182071429619,0.0208534672175253,-0.0012464759918835,-0.0003880958516844,0.0046137282653057,-0.0032919240812634,0.0019515936993868,0.0003349418922814,-0.0016009407389709,0.0044696137223012,-0.0099339182006406,-0.0022846852886786,0.0091054621020627,-0.0071291936001002,0.0004731246902903,0.0045497013341584,0.0136069967858699,-0.0114584475366958,-0.0786793802614602,-0.0079049617317552,0.0003498388567679,-0.0201387547573226,0.0064924845164135,0.0109069406003773,0.0061323812367908,0.0082013647678995,0.0064972316974725,-0.0016894970103345,-0.0012110466054881,-0.0009855356663811,0.0025514011737721,-0.0050238588334763,-0.0005090902767327,0.0018532834122067,0.0008804094175146,0.0083243601277961,1/2^lambda
105_7500_5,-0.0058818138747452,-0.0019735269868501,-0.0017922759442778,-0.0028245131051107,-0.0043955701076998,-0.0035348311194757,-0.005975464845495,-0.0005725866416642,0.0238352998546524,0.0089417993886188,-0.0012076782969103,0.0136345271316897,-0.0016971739873846,0.000401704130193,0.0120817700449151,-2.4861166511714784e-05,0.0011709136190004,0.0055043394482333,0.0001116291718988,0.0112685053521378,-0.0090063864498449,0.0053483397658481,0.0033266104434659,0.0085770270470154,-0.0053676068934244,0.0132560583454322,-0.0049381846637606,-0.0117311834708709,-0.0199670774979448,0.0001123807066896,-0.0036214816500136,-0.0006069799782161,0.003834777111506,0.0020262550869237,-0.0101383511699603,0.0009313871979448,0.0029007814860262,-0.0028094366226899,-0.0002913392342741,-0.0041854099306476,-0.0038559564193469,-0.0043945135466046,-4.809126688790975e-05,-0.0009672684350686,-0.0022322039186443,0.0045716460176585,1/2^lambda
106_7500_5,-0.0040405410829524,-0.0053440042225462,-0.0001384269361268,-6.710304397625325e-05,0.0005925885088115,-0.0038338778948246,-0.0012238302076139,0.0020633470623963,-0.0071553922424602,-0.000483520644875,0.0025480009092417,0.0233424174057321,-1.5345858731843676e-05,-0.0010112071152912,0.0108788340267491,-0.003336270788295,-0.0003473435135412,0.0032217614937131,-0.0006900137486715,0.0106594018238106,-0.0054894374445681,-0.003408739635452,0.0024955630312373,-0.0055465833405987,-0.0053838270717924,0.0066943253271913,-0.0036234968509091,-0.002871269565199,-0.0446436538343476,-0.0056786720557108,-0.0058379837410211,-0.0069257283957402,0.0091208455756822,0.0133528837999884,0.0012047352631435,0.0021660511911636,0.0101045823620919,5.320818798324305e-05,-0.0037432064618567,-0.0014083825456491,0.0051905500981802,0.0035113016856292,-0.0009679273053994,-0.0005187589100216,0.0045815584893703,0.0082461340575146,1/2^lambda
107_7500_5,-0.0041463455419598,-0.0003165033058922,-0.0013794200013145,-0.0063625950097201,-0.0093254137766304,-0.0044707993085497,-0.0004640420015123,0.0039903152206822,0.0133574885097463,-0.0153795362068409,-0.012580210356118,0.0331717458514779,0.0011268910986405,0.0010154063917161,0.0082346981561733,-0.0005990163192828,-0.0020126863193891,0.0022176444788344,0.0011080460930729,0.0035282685347397,-0.0104132654425006,3.611355657879353e-05,0.0076143358755249,0.0089332824221199,-0.0053801762316301,0.0254240655882549,0.0109972684650677,-0.0136426410785589,0.0045586633700244,-0.0131211246204946,-0.0093463701257245,0.0072060851449806,-0.0053376814836642,0.0061617491901602,-0.008846608609392,0.0061262282130695,-0.0087750192904143,-0.0061237933532902,-0.0046285795705474,-0.0055425206071278,-0.0017306602024654,-0.0017657968448971,-0.0004441476626523,-0.0023663066780977,-0.0015756346173983,-9.27242731132512e-05,1/2^lambda
108_7500_5,-0.0048628047188026,-0.0005716233278351,-0.0017138992829028,-0.0019760978794346,0.004995679182663,0.0006610879678042,-0.006676467161282,0.0036212056867353,0.0069470790546392,0.0279478147890534,-0.0225051444173663,0.0139328784435166,0.0045758593283056,-6.961570255905895e-05,0.001711071770153,-0.0040340756701303,0.0018075882754607,-0.0025341904464657,0.0038018974200914,0.0058631775600899,-0.0038496746334733,-0.000600200161225,0.0184169366684824,-0.0047706920502164,0.0062385143753648,0.0116095268260692,0.0260245502675286,-0.0079098096088527,-0.0646749359109581,-0.0144751448463098,-0.0245093039830069,-0.0109620341150245,-0.0030717043154788,0.002959239802794,0.0019250511719112,0.0047930303740986,0.0112517100675391,0.0054692573861059,0.0033160939809741,0.0016691260379007,-0.0025380817446861,-0.0015029664941007,-0.000166011370779,0.0005093633959113,0.0008233636561073,0.0100532919316126,default
